{"learner":{"attributes":{"scikit_learn":"{\"_estimator_type\": \"classifier\"}"},"feature_names":[],"feature_types":[],"gradient_booster":{"model":{"cats":{"enc":[],"feature_segments":[],"sorted_idx":[]},"gbtree_model_param":{"num_parallel_tree":"1","num_trees":"200"},"iteration_indptr":[0,1,2,3,4,5,6,7,8,9,10,11,12,13,14,15,16,17,18,19,20,21,22,23,24,25,26,27,28,29,30,31,32,33,34,35,36,37,38,39,40,41,42,43,44,45,46,47,48,49,50,51,52,53,54,55,56,57,58,59,60,61,62,63,64,65,66,67,68,69,70,71,72,73,74,75,76,77,78,79,80,81,82,83,84,85,86,87,88,89,90,91,92,93,94,95,96,97,98,99,100,101,102,103,104,105,106,107,108,109,110,111,112,113,114,115,116,117,118,119,120,121,122,123,124,125,126,127,128,129,130,131,132,133,134,135,136,137,138,139,140,141,142,143,144,145,146,147,148,149,150,151,152,153,154,155,156,157,158,159,160,161,162,163,164,165,166,167,168,169,170,171,172,173,174,175,176,177,178,179,180,181,182,183,184,185,186,187,188,189,190,191,192,193,194,195,196,197,198,199,200],"tree_info":[0,0,0,0,0,0,0,0,0,0,0,0,0,0,0,0,0,0,0,0,0,0,0,0,0,0,0,0,0,0,0,0,0,0,0,0,0,0,0,0,0,0,0,0,0,0,0,0,0,0,0,0,0,0,0,0,0,0,0,0,0,0,0,0,0,0,0,0,0,0,0,0,0,0,0,0,0,0,0,0,0,0,0,0,0,0,0,0,0,0,0,0,0,0,0,0,0,0,0,0,0,0,0,0,0,0,0,0,0,0,0,0,0,0,0,0,0,0,0,0,0,0,0,0,0,0,0,0,0,0,0,0,0,0,0,0,0,0,0,0,0,0,0,0,0,0,0,0,0,0,0,0,0,0,0,0,0,0,0,0,0,0,0,0,0,0,0,0,0,0,0,0,0,0,0,0,0,0,0,0,0,0,0,0,0,0,0,0,0,0,0,0,0,0,0,0,0,0,0,0],"trees":[{"base_weights":[-6.6904956E-3,1.5800182E0,-1.4274081E0,1.7374128E0,6.519828E-1,-4.7532007E-1,-1.7631582E0,-5.321723E-1,1.7564951E0,-5.0597715E-1,1.1345614E0,2.4343906E-1,-1.0977733E0,-1.9960348E-1,-1.3809178E0,7.473509E-2,-1.5534881E-1,1.8566986E0,1.4014089E0,2.1173297E-1,-7.640948E-1,-1.617304E-1,1.2762927E0,-1.9173041E-1,7.3555773E-1,-2.7793273E-2,-1.233518E0,-1.6267332E0,1.9052224E-1,1.5473658E-1,1.8929479E-1,8.704101E-2,1.965106E-1,-2.48924E-2,9.4510615E-2,-1.359383E-1,-3.3733137E-2,1.5523915E-1,-8.91422E-3,1.1029303E-1,-6.963697E-2,8.555438E-2,-5.5252235E-2,6.136779E-2,-1.31893E-1,-1.6854315E-1,1.198233E-1],"categories":[],"categories_nodes":[],"categories_segments":[],"categories_sizes":[],"default_left":[0,0,0,0,0,0,0,0,1,0,0,0,0,0,1,0,0,0,0,0,0,0,0,0,0,0,0,0,0,0,0,0,0,0,0,0,0,0,0,0,0,0,0,0,0,0,0],"id":0,"left_children":[1,3,5,7,9,11,13,15,17,19,21,23,25,-1,27,-1,-1,29,31,33,35,-1,37,-1,39,41,43,45,-1,-1,-1,-1,-1,-1,-1,-1,-1,-1,-1,-1,-1,-1,-1,-1,-1,-1,-1],"loss_changes":[4.5130386E3,1.3698682E2,3.3678418E2,3.594043E1,7.81148E1,1.2409203E2,6.6686035E1,1.0970039E1,2.5883545E1,7.8553343E0,4.0380722E1,1.3883543E2,2.1521866E1,0E0,2.4442188E2,0E0,0E0,4.0109863E0,5.228891E1,4.211765E0,7.33642E0,0E0,3.5590546E1,0E0,5.653351E1,8.697027E0,2.1602997E1,4.8205444E1,0E0,0E0,0E0,0E0,0E0,0E0,0E0,0E0,0E0,0E0,0E0,0E0,0E0,0E0,0E0,0E0,0E0,0E0,0E0],"parents":[2147483647,0,0,1,1,2,2,3,3,4,4,5,5,6,6,7,7,8,8,9,9,10,10,11,11,12,12,14,14,17,17,18,18,19,19,20,20,22,22,24,24,25,25,26,26,27,27],"right_children":[2,4,6,8,10,12,14,16,18,20,22,24,26,-1,28,-1,-1,30,32,34,36,-1,38,-1,40,42,44,46,-1,-1,-1,-1,-1,-1,-1,-1,-1,-1,-1,-1,-1,-1,-1,-1,-1,-1,-1],"split_conditions":[1.4403341E0,7.0861787E-1,5.3333336E-1,1E0,1E0,8E0,1E0,1.8939394E-1,6.8333334E-1,5.6666666E-1,1E0,1E0,8.5E-1,-1.9960348E-1,2.0833333E0,7.473509E-2,-1.5534881E-1,7E-1,2E0,3.6666667E-1,9.002367E-1,-1.617304E-1,8E0,-1.9173041E-1,7.42E0,1.25E0,1.6666668E-2,2.9778528E1,1.9052224E-1,1.5473658E-1,1.8929479E-1,8.704101E-2,1.965106E-1,-2.48924E-2,9.4510615E-2,-1.359383E-1,-3.3733137E-2,1.5523915E-1,-8.91422E-3,1.1029303E-1,-6.963697E-2,8.555438E-2,-5.5252235E-2,6.136779E-2,-1.31893E-1,-1.6854315E-1,1.198233E-1],"split_indices":[0,0,1,2,7,8,2,0,1,1,2,2,7,0,1,0,0,7,1,1,0,0,8,0,4,4,1,0,0,0,0,0,0,0,0,0,0,0,0,0,0,0,0,0,0,0,0],"split_type":[0,0,0,0,0,0,0,0,0,0,0,0,0,0,0,0,0,0,0,0,0,0,0,0,0,0,0,0,0,0,0,0,0,0,0,0,0,0,0,0,0,0,0,0,0,0,0],"sum_hessian":[2E3,9.4475E2,1.05525E3,8.07E2,1.3775E2,2.7575E2,7.795E2,6.5E0,8.005E2,4.05E1,9.725E1,1.2825E2,1.475E2,4.8175E2,2.9775E2,3E0,3.5E0,6.21E2,1.795E2,1.075E1,2.975E1,4.25E0,9.3E1,2.325E1,1.05E2,1.675E1,1.3075E2,2.775E2,2.025E1,6.975E1,5.5125E2,9.375E1,8.575E1,7E0,3.75E0,1.15E1,1.825E1,7.725E1,1.575E1,8.375E1,2.125E1,6E0,1.075E1,5.5E0,1.2525E2,2.7225E2,5.25E0],"tree_param":{"num_deleted":"0","num_feature":"13","num_nodes":"47","size_leaf_vector":"1"}},{"base_weights":[-2.4257813E-2,-1.79146E0,6.1568797E-1,-1.4372368E0,-1.816746E-1,1.1865524E0,-2.177426E-1,-1.6815373E0,-6.104935E-1,2.0798856E-1,1.3528639E0,-3.2596803E-1,1.7541882E-1,-1.7689185E-1,-7.21856E-2,-1.07696585E-1,2.7683412E-3,3.2391407E-2,-1.6847183E-1,1.5597744E0,1.0255018E0,8.003548E-2,-1.2114427E0,1.6636364E-1,1.11991696E-1,7.4412785E-2,1.8033074E-1,-7.821139E-2,2.1094738E-2,-8.007938E-2,-1.3599612E-1],"categories":[],"categories_nodes":[],"categories_segments":[],"categories_sizes":[],"default_left":[0,0,0,1,0,0,1,0,1,1,1,1,0,0,0,0,0,0,0,1,0,0,0,0,0,0,0,0,0,0,0],"id":1,"left_children":[1,3,5,7,-1,9,11,13,15,17,19,21,-1,-1,-1,-1,-1,-1,-1,23,25,27,29,-1,-1,-1,-1,-1,-1,-1,-1],"loss_changes":[2.2434673E3,2.0802002E0,6.93185E2,7.0197983E0,0E0,1.4039929E2,1.2708604E2,1.235733E0,3.2233036E0,2.834811E1,4.841272E1,2.0246793E2,0E0,0E0,0E0,0E0,0E0,0E0,0E0,1.8699219E1,6.1888763E1,4.3822342E1,9.685852E0,0E0,0E0,0E0,0E0,0E0,0E0,0E0,0E0],"parents":[2147483647,0,0,1,1,2,2,3,3,5,5,6,6,7,7,8,8,9,9,10,10,11,11,19,19,20,20,21,21,22,22],"right_children":[2,4,6,8,-1,10,12,14,16,18,20,22,-1,-1,-1,-1,-1,-1,-1,24,26,28,30,-1,-1,-1,-1,-1,-1,-1,-1],"split_conditions":[1E0,6.8333334E-1,8E0,7.93E0,-1.816746E-1,7E-1,2E0,6.333333E-1,9E0,2.6666668E-1,4.3333334E-1,6.5E-1,1.7541882E-1,-1.7689185E-1,-7.21856E-2,-1.07696585E-1,2.7683412E-3,3.2391407E-2,-1.6847183E-1,7.56E0,2.0833333E0,7E-1,8.5E-1,1.6636364E-1,1.11991696E-1,7.4412785E-2,1.8033074E-1,-7.821139E-2,2.1094738E-2,-8.007938E-2,-1.3599612E-1],"split_indices":[2,1,8,4,0,7,1,1,3,1,1,1,0,0,0,0,0,0,0,4,1,7,1,0,0,0,0,0,0,0,0],"split_type":[0,0,0,0,0,0,0,0,0,0,0,0,0,0,0,0,0,0,0,0,0,0,0,0,0,0,0,0,0,0,0],"sum_hessian":[1.9817798E3,5.263865E2,1.4553933E3,3.8952175E1,4.874343E2,8.635124E2,5.918809E2,2.9259922E1,9.692253E0,1.2577469E2,7.3773773E2,5.618829E2,2.9998032E1,2.6035662E1,3.2242606E0,5.2112317E0,4.481022E0,1.1930178E2,6.472912E0,4.4970483E2,2.880329E2,3.8585904E2,1.7602386E2,3.615325E2,8.817233E1,2.1296248E2,7.507041E1,5.0200665E1,3.3565836E2,4.846868E1,1.2755519E2],"tree_param":{"num_deleted":"0","num_feature":"13","num_nodes":"31","size_leaf_vector":"1"}},{"base_weights":[-6.7253746E-3,-1.6566861E0,5.720954E-1,-1.6668384E-1,-1.0558045E0,1.1075187E0,-2.3920847E-1,-6.0950074E-4,-1.4755164E-1,1.3473241E0,6.9117016E-1,-3.4598428E-1,1.5940756E-1,1.5401273E0,1.1555073E0,2.9148787E-1,1.3529838E0,6.0610804E-3,-1.0479373E0,1.5902841E-1,1.363519E-1,9.360332E-2,1.6623524E-1,-8.837009E-2,9.6354514E-2,1.4463231E-1,-1.4133321E-1,-1.2972196E-2,7.689225E-2,-1.5358172E-1,-8.891921E-2],"categories":[],"categories_nodes":[],"categories_segments":[],"categories_sizes":[],"default_left":[0,1,0,0,0,0,1,0,0,0,0,1,0,1,0,1,1,0,0,0,0,0,0,0,0,0,0,0,0,0,0],"id":2,"left_children":[1,3,5,-1,7,9,11,-1,-1,13,15,17,-1,19,21,23,25,27,29,-1,-1,-1,-1,-1,-1,-1,-1,-1,-1,-1,-1],"loss_changes":[1.8749755E3,1.3231201E0,6.316139E2,0E0,4.917577E0,8.648523E1,1.1380908E2,0E0,0E0,1.8704834E1,8.479718E1,1.3534546E2,0E0,2.2540283E-1,2.979303E1,1.6048753E2,3.3289017E1,3.798645E1,1.2777588E1,0E0,0E0,0E0,0E0,0E0,0E0,0E0,0E0,0E0,0E0,0E0,0E0],"parents":[2147483647,0,0,1,1,2,2,4,4,5,5,6,6,9,9,10,10,11,11,13,13,14,14,15,15,16,16,17,17,18,18],"right_children":[2,4,6,-1,8,10,12,-1,-1,14,16,18,-1,20,22,24,26,28,30,-1,-1,-1,-1,-1,-1,-1,-1,-1,-1,-1,-1],"split_conditions":[1E0,2.176E1,8E0,-1.6668384E-1,6.5E-1,7.8E0,2E0,-6.0950074E-4,-1.4755164E-1,3.6666667E-1,3E-2,6E-1,1.5940756E-1,1.2E1,2E0,1.21E0,1.5E-1,6.44E-1,4.2E-1,1.5902841E-1,1.363519E-1,9.360332E-2,1.6623524E-1,-8.837009E-2,9.6354514E-2,1.4463231E-1,-1.4133321E-1,-1.2972196E-2,7.689225E-2,-1.5358172E-1,-8.891921E-2],"split_indices":[2,4,8,0,1,4,1,0,0,1,6,1,0,3,1,5,1,6,5,0,0,0,0,0,0,0,0,0,0,0,0],"split_type":[0,0,0,0,0,0,0,0,0,0,0,0,0,0,0,0,0,0,0,0,0,0,0,0,0,0,0,0,0,0,0],"sum_hessian":[1.9612566E3,5.088647E2,1.4523918E3,4.9864896E2,1.0215752E1,8.747466E2,5.776453E2,3.2145164E0,7.001235E0,5.536177E2,3.2112894E2,5.46625E2,3.1020302E1,2.7256744E2,2.810502E2,2.0112259E2,1.2000635E2,3.6469788E2,1.8192714E2,2.0600165E2,6.656579E1,1.9812474E2,8.292548E1,7.305159E1,1.28071E2,1.1655442E2,3.451924E0,3.1028632E2,5.4411552E1,4.2517662E1,1.3940947E2],"tree_param":{"num_deleted":"0","num_feature":"13","num_nodes":"31","size_leaf_vector":"1"}},{"base_weights":[8.351085E-3,-1.5568168E0,5.472758E-1,-1.5618385E-1,-7.1336925E-2,1.034527E0,-1.3513103E-1,8.017015E-2,1.187556E0,-2.1992056E-1,7.4721706E-1,-7.002451E-2,9.946483E-2,1.2442353E0,6.28331E-1,-1.3446477E-1,-6.994939E-1,-1.4311753E-1,1.2990715E-1,7.469088E-2,1.2706764E-1,2.1088265E-2,9.779842E-2,-5.3421985E-2,6.886979E-4,-5.3375017E-2,-1.4873624E-1],"categories":[],"categories_nodes":[],"categories_segments":[],"categories_sizes":[],"default_left":[0,1,0,0,0,0,0,0,1,0,0,0,0,0,0,0,1,0,0,0,0,0,0,0,0,0,0],"id":3,"left_children":[1,3,5,-1,-1,7,9,11,13,15,17,-1,-1,19,21,23,25,-1,-1,-1,-1,-1,-1,-1,-1,-1,-1],"loss_changes":[1.6353429E3,9.661865E-1,4.7967548E2,0E0,0E0,1.22791504E2,4.5170753E1,8.446379E1,2.2184265E1,2.2424965E1,6.552882E1,0E0,0E0,7.675232E0,9.819559E0,2.6442816E1,1.0008663E1,0E0,0E0,0E0,0E0,0E0,0E0,0E0,0E0,0E0,0E0],"parents":[2147483647,0,0,1,1,2,2,5,5,6,6,7,7,8,8,9,9,10,10,13,13,14,14,15,15,16,16],"right_children":[2,4,6,-1,-1,8,10,12,14,16,18,-1,-1,20,22,24,26,-1,-1,-1,-1,-1,-1,-1,-1,-1,-1],"split_conditions":[1E0,1.388E1,8E0,-1.5618385E-1,-7.1336925E-2,7E-1,6.44E-1,3E-2,5.76E0,1.226E1,7E-1,-7.002451E-2,9.946483E-2,1E0,7.4E0,4.2E-1,1.426E1,-1.4311753E-1,1.2990715E-1,7.469088E-2,1.2706764E-1,2.1088265E-2,9.779842E-2,-5.3421985E-2,6.886979E-4,-5.3375017E-2,-1.4873624E-1],"split_indices":[2,5,8,0,0,7,6,6,5,4,7,0,0,7,5,5,5,0,0,0,0,0,0,0,0,0,0],"split_type":[0,0,0,0,0,0,0,0,0,0,0,0,0,0,0,0,0,0,0,0,0,0,0,0,0,0,0],"sum_hessian":[1.9367429E3,4.9557266E2,1.4411703E3,4.917811E2,3.7915523E0,8.405212E2,6.0064905E2,1.1637084E2,7.241504E2,5.4868506E2,5.196399E1,6.2908276E1,5.3462566E1,6.563812E2,6.776911E1,4.6680563E2,8.187946E1,1.0177553E1,4.1786434E1,3.4631443E1,6.217498E2,3.163365E1,3.613546E1,1.21234695E2,3.4557092E2,6.90447E1,1.2834763E1],"tree_param":{"num_deleted":"0","num_feature":"13","num_nodes":"27","size_leaf_vector":"1"}},{"base_weights":[1.5264727E-2,1.3209864E0,-1.1142355E0,1.447883E0,7.8235024E-1,-4.4550285E-1,-1.341683E0,1.5170412E0,1.1285663E0,2.0449625E-2,1.1050594E0,1.0983595E-1,-9.4431144E-1,-1.4295441E0,-4.555897E-1,1.602154E0,1.4289259E0,5.93515E-1,1.507129E-1,3.046562E-1,-1.3008188E-1,1.206701E0,4.513943E-1,5.054777E-1,-7.741686E-1,4.4636182E-2,-1.0964245E0,-9.215578E-1,-1.4816105E0,1.4632748E-1,-1.4636232E-1,1.6098249E-1,7.982379E-2,1.4646855E-1,1.1592938E-1,9.2807144E-2,-6.819632E-3,1.9626312E-3,1.1725402E-1,1.2805693E-1,4.7047045E-2,9.072297E-2,-5.9575267E-2,7.3956266E-2,-6.0062613E-2,8.7417714E-2,-1.4147182E-1,7.859918E-2,-6.1663546E-2,-1.187815E-1,-2.0425772E-2,5.771106E-2,-1.1016468E-1,-1.5248603E-1,-1.1028395E-1],"categories":[],"categories_nodes":[],"categories_segments":[],"categories_sizes":[],"default_left":[0,0,0,1,0,0,1,0,0,1,0,0,0,0,0,1,1,0,0,1,0,1,1,0,0,1,0,0,0,0,0,0,0,0,0,0,0,0,0,0,0,0,0,0,0,0,0,0,0,0,0,0,0,0,0],"id":4,"left_children":[1,3,5,7,9,11,13,15,17,19,21,23,25,27,29,31,33,35,-1,37,-1,39,41,43,45,47,49,51,53,-1,-1,-1,-1,-1,-1,-1,-1,-1,-1,-1,-1,-1,-1,-1,-1,-1,-1,-1,-1,-1,-1,-1,-1,-1,-1],"loss_changes":[2.7904336E3,5.882788E1,1.5369006E2,1.39198E1,4.1645454E1,7.185225E1,5.822644E1,2.0292969E0,2.5448486E1,1.971214E1,7.3484344E0,4.355938E1,2.0600777E1,1.680188E1,1.3700565E2,4.5874023E-1,1.1126709E0,1.2379133E1,0E0,1.0644396E1,0E0,4.950012E0,8.959619E0,2.2682611E1,4.1945465E1,9.876992E0,9.396774E0,1.8617153E1,8.484375E0,0E0,0E0,0E0,0E0,0E0,0E0,0E0,0E0,0E0,0E0,0E0,0E0,0E0,0E0,0E0,0E0,0E0,0E0,0E0,0E0,0E0,0E0,0E0,0E0,0E0,0E0],"parents":[2147483647,0,0,1,1,2,2,3,3,4,4,5,5,6,6,7,7,8,8,9,9,10,10,11,11,12,12,13,13,14,14,15,15,16,16,17,17,19,19,21,21,22,22,23,23,24,24,25,25,26,26,27,27,28,28],"right_children":[2,4,6,8,10,12,14,16,18,20,22,24,26,28,30,32,34,36,-1,38,-1,40,42,44,46,48,50,52,54,-1,-1,-1,-1,-1,-1,-1,-1,-1,-1,-1,-1,-1,-1,-1,-1,-1,-1,-1,-1,-1,-1,-1,-1,-1,-1],"split_conditions":[1.1678956E0,5.1653993E-1,4.8333332E-1,9E-1,1E0,8E0,2.0833333E0,3.77E0,2E0,7.5E-1,8E0,1E1,5E-2,4E0,8.0282E1,8.21E0,1.5E1,1.1E1,1.507129E-1,2.35E0,-1.3008188E-1,2E1,4.5E-1,7.42E0,2.0534832E0,9E0,2.7910868E1,1.9299599E0,1.28801E0,1.4632748E-1,-1.4636232E-1,1.6098249E-1,7.982379E-2,1.4646855E-1,1.1592938E-1,9.2807144E-2,-6.819632E-3,1.9626312E-3,1.1725402E-1,1.2805693E-1,4.7047045E-2,9.072297E-2,-5.9575267E-2,7.3956266E-2,-6.0062613E-2,8.7417714E-2,-1.4147182E-1,7.859918E-2,-6.1663546E-2,-1.187815E-1,-2.0425772E-2,5.771106E-2,-1.1016468E-1,-1.5248603E-1,-1.1028395E-1],"split_indices":[0,0,1,1,7,8,1,4,1,1,8,3,1,3,0,5,3,3,0,5,0,3,1,4,0,3,0,0,6,0,0,0,0,0,0,0,0,0,0,0,0,0,0,0,0,0,0,0,0,0,0,0,0,0,0],"split_type":[0,0,0,0,0,0,0,0,0,0,0,0,0,0,0,0,0,0,0,0,0,0,0,0,0,0,0,0,0,0,0,0,0,0,0,0,0,0,0,0,0,0,0,0,0,0,0,0,0,0,0,0,0,0,0],"sum_hessian":[1.89006E3,8.765697E2,1.01349036E3,7.080536E2,1.6851614E2,2.5798257E2,7.5550775E2,5.788936E2,1.2915996E2,5.0465034E1,1.1805112E2,1.2243344E2,1.3554913E2,6.8678467E2,6.872309E1,2.8566568E2,2.9322794E2,5.459333E1,7.456663E1,4.2170986E1,8.294045E0,1.0141955E2,1.6631573E1,8.4883026E1,3.7550423E1,1.8155268E1,1.1739386E2,6.560454E1,6.211801E2,2.350951E1,4.5213585E1,2.8196036E2,3.7053246E0,2.5494676E2,3.8281185E1,3.6003033E1,1.8590298E1,3.252371E1,9.64728E0,9.148739E1,9.932157E0,1.1687176E1,4.944398E0,7.033784E1,1.4545184E1,1.04020815E1,2.714834E1,8.4775505E0,9.677717E0,1.0617506E2,1.1218802E1,6.7952847E0,5.8809254E1,5.547805E2,6.639961E1],"tree_param":{"num_deleted":"0","num_feature":"13","num_nodes":"55","size_leaf_vector":"1"}},{"base_weights":[4.7059846E-3,1.2418419E0,-1.0346775E0,1.3751836E0,7.7121913E-1,-1.4303434E-1,-7.2955215E-1,1.4062827E0,1.06565E0,-1.3524826E-1,8.518497E-1,-1.13110624E-1,-1.1662414E0,1.4422618E-1,1.2712898E0,1.116529E-1,2.2402856E-2,1.0301371E0,3.5088012E-1,4.4907188E-1,-1.0545262E0,-1.194185E0,1.0062509E-1,1.0568317E-1,1.3447942E-1,1.2323457E-1,5.7272978E-2,1.1492687E-1,3.6554963E-3,3.169153E-2,1.4438598E-1,-1.15189545E-1,1.1645062E-1,-7.8097574E-2,-1.3584305E-1],"categories":[],"categories_nodes":[],"categories_segments":[],"categories_sizes":[],"default_left":[0,0,0,1,0,0,0,0,0,0,0,0,0,0,0,0,0,0,1,0,0,0,0,0,0,0,0,0,0,0,0,0,0,0,0],"id":5,"left_children":[1,3,5,7,9,-1,11,13,15,-1,17,19,21,-1,23,-1,-1,25,27,29,31,33,-1,-1,-1,-1,-1,-1,-1,-1,-1,-1,-1,-1,-1],"loss_changes":[2.3592324E3,5.1486084E1,1.1930786E2,4.7476807E0,3.3208534E1,0E0,1.5194836E2,9.991455E-1,2.4613342E0,0E0,1.5791534E1,1.2506279E2,2.1273285E1,0E0,6.4193726E-1,0E0,0E0,1.157431E1,1.2253046E1,1.899239E1,2.0423775E1,2.1101166E1,0E0,0E0,0E0,0E0,0E0,0E0,0E0,0E0,0E0,0E0,0E0,0E0,0E0],"parents":[2147483647,0,0,1,1,2,2,3,3,4,4,6,6,7,7,8,8,10,10,11,11,12,12,14,14,17,17,18,18,19,19,20,20,21,21],"right_children":[2,4,6,8,10,-1,12,14,16,-1,18,20,22,-1,24,-1,-1,26,28,30,32,34,-1,-1,-1,-1,-1,-1,-1,-1,-1,-1,-1,-1,-1],"split_conditions":[1.1678956E0,4.711024E-1,1E0,5.37E0,1E0,-1.4303434E-1,8E0,2.511698E-1,1.658E1,-1.3524826E-1,8E0,8.07E0,2.9778528E1,1.4422618E-1,3E0,1.116529E-1,2.2402856E-2,1.049E1,2.1E-1,2.9778528E1,2.7430542E1,5.358317E0,1.0062509E-1,1.0568317E-1,1.3447942E-1,1.2323457E-1,5.7272978E-2,1.1492687E-1,3.6554963E-3,3.169153E-2,1.4438598E-1,-1.15189545E-1,1.1645062E-1,-7.8097574E-2,-1.3584305E-1],"split_indices":[0,0,2,5,2,0,8,0,5,0,8,4,0,0,4,0,0,5,5,0,0,0,0,0,0,0,0,0,0,0,0,0,0,0,0],"split_type":[0,0,0,0,0,0,0,0,0,0,0,0,0,0,0,0,0,0,0,0,0,0,0,0,0,0,0,0,0,0,0,0,0,0,0],"sum_hessian":[1.8327517E3,8.3668933E2,9.9606244E2,6.5045294E2,1.8623634E2,4.320669E2,5.6399554E2,5.8781866E2,6.263427E1,6.2306747E0,1.8000568E2,2.343969E2,3.2959866E2,4.5641415E2,1.3140453E2,5.874444E1,3.8898327E0,1.3196507E2,4.8040604E1,1.4707869E2,8.7318214E1,3.2586218E2,3.7364852E0,3.7501884E1,9.390264E1,9.032051E1,4.164456E1,1.2811405E1,3.52292E1,1.3100362E2,1.6075075E1,8.411282E1,3.2053883E0,9.433916E1,2.3152301E2],"tree_param":{"num_deleted":"0","num_feature":"13","num_nodes":"35","size_leaf_vector":"1"}},{"base_weights":[-2.733035E-2,-1.3584562E-1,3.9144674E-1,-7.0108056E-2,6.3925266E-1,3.7926006E-1,-3.135011E-1,4.644896E-1,1.2969956E0,4.3836457E-1,-8.7508464E-1,-4.3780375E-1,1.3154118E-1,7.212901E-1,-6.2322724E-1,1.4058493E-1,1.2041817E-1,7.3063165E-2,2.6371831E-2,-1.3782607E-1,-9.232523E-3,-6.2408008E-2,2.6922712E-2,8.4959395E-2,4.5248277E-2,-3.7093993E-2,-9.820429E-2],"categories":[],"categories_nodes":[],"categories_segments":[],"categories_sizes":[],"default_left":[0,0,0,0,0,0,1,0,0,0,1,0,0,0,0,0,0,0,0,0,0,0,0,0,0,0,0],"id":6,"left_children":[1,-1,3,5,7,9,11,13,15,17,19,21,-1,23,25,-1,-1,-1,-1,-1,-1,-1,-1,-1,-1,-1,-1],"loss_changes":[9.6940515E2,0E0,1.5135573E2,5.075976E1,9.833496E1,1.2472027E1,6.149344E1,1.9087105E2,1.0101318E-1,7.782955E0,2.8774776E0,3.7091263E1,0E0,1.863977E1,1.1456947E1,0E0,0E0,0E0,0E0,0E0,0E0,0E0,0E0,0E0,0E0,0E0,0E0],"parents":[2147483647,0,0,2,2,3,3,4,4,5,5,6,6,7,7,8,8,9,9,10,10,11,11,13,13,14,14],"right_children":[2,-1,4,6,8,10,12,14,16,18,20,22,-1,24,26,-1,-1,-1,-1,-1,-1,-1,-1,-1,-1,-1,-1],"split_conditions":[1E0,-1.3584562E-1,1E0,5E-1,2.0833333E0,3.206E1,2E0,7.3333335E-1,6E0,6E0,4.137E1,6.44E-1,1.3154118E-1,4E-1,1.1E1,1.4058493E-1,1.2041817E-1,7.3063165E-2,2.6371831E-2,-1.3782607E-1,-9.232523E-3,-6.2408008E-2,2.6922712E-2,8.4959395E-2,4.5248277E-2,-3.7093993E-2,-9.820429E-2],"split_indices":[2,0,7,1,1,4,1,1,1,3,4,6,0,1,3,0,0,0,0,0,0,0,0,0,0,0,0],"split_type":[0,0,0,0,0,0,0,0,0,0,0,0,0,0,0,0,0,0,0,0,0,0,0,0,0,0,0],"sum_hessian":[1.7370437E3,4.1516843E2,1.3218752E3,4.6201633E2,8.5985895E2,1.6211314E2,2.999032E2,6.8071387E2,1.7914507E2,1.55447E2,6.6661396E0,2.793252E2,2.057799E1,5.509787E2,1.297352E2,7.588793E1,1.0325713E2,5.693188E1,9.851513E1,3.5868688E0,3.079271E0,2.2118314E2,5.814206E1,3.7147363E2,1.7950507E2,7.738593E1,5.2349262E1],"tree_param":{"num_deleted":"0","num_feature":"13","num_nodes":"27","size_leaf_vector":"1"}},{"base_weights":[2.3164495E-3,1.0861633E0,-9.902222E-1,1.21181E0,4.4750816E-1,-3.8943592E-1,-1.1751903E0,-5.4831054E-2,1.2251409E0,-1.708019E-1,7.5888026E-1,-1.3171522E-1,-1.1151552E-1,-8.6264646E-1,-1.2577169E0,8.7438054E-2,-1.16373174E-1,1.2342607E0,-1.1603738E-2,-7.1050644E-1,7.244279E-2,-1.1129185E-1,8.54431E-1,5.6087995E-1,-7.2468036E-1,-3.6381474E-1,-1.214473E0,-7.153505E-1,-1.2792478E0,1.2856807E-1,1.08157985E-1,-1.12388484E-1,5.8139753E-2,2.2788934E-2,-8.8101454E-2,1.0176354E-1,1.7699245E-2,1.1484287E-1,2.583467E-2,7.3398866E-2,-1.02652624E-1,-1.2691417E-1,9.599929E-3,-1.3547543E-1,-8.379939E-2,6.456594E-2,-1.2116082E-1,-1.2885146E-1,-2.178116E-2],"categories":[],"categories_nodes":[],"categories_segments":[],"categories_sizes":[],"default_left":[0,0,0,0,0,0,0,0,1,0,0,0,0,0,0,0,0,0,0,1,1,0,0,0,0,0,0,0,1,0,0,0,0,0,0,0,0,0,0,0,0,0,0,0,0,0,0,0,0],"id":7,"left_children":[1,3,5,7,9,11,13,15,17,19,21,-1,23,25,27,-1,-1,29,-1,31,33,-1,35,37,39,41,43,45,47,-1,-1,-1,-1,-1,-1,-1,-1,-1,-1,-1,-1,-1,-1,-1,-1,-1,-1,-1,-1],"loss_changes":[1.8518372E3,6.5471924E1,9.9379944E1,1.1679199E1,2.648688E1,5.4764698E1,1.6601562E1,9.371222E0,8.470337E0,6.181737E0,1.726416E1,0E0,6.844565E1,2.5274124E1,5.3814697E0,0E0,0E0,3.8880615E0,0E0,8.454625E0,5.092611E0,0E0,9.467163E0,1.3779051E1,3.8955162E1,2.5976181E1,3.3603287E0,1.628151E1,4.809021E0,0E0,0E0,0E0,0E0,0E0,0E0,0E0,0E0,0E0,0E0,0E0,0E0,0E0,0E0,0E0,0E0,0E0,0E0,0E0,0E0],"parents":[2147483647,0,0,1,1,2,2,3,3,4,4,5,5,6,6,7,7,8,8,9,9,10,10,12,12,13,13,14,14,17,17,19,19,20,20,22,22,23,23,24,24,25,25,26,26,27,27,28,28],"right_children":[2,4,6,8,10,12,14,16,18,20,22,-1,24,26,28,-1,-1,30,-1,32,34,-1,36,38,40,42,44,46,48,-1,-1,-1,-1,-1,-1,-1,-1,-1,-1,-1,-1,-1,-1,-1,-1,-1,-1,-1,-1],"split_conditions":[1.4403341E0,7.0861787E-1,6E0,1E0,1E0,1E0,1.2E1,1.8939394E-1,1.742E1,8.620155E-1,1E0,-1.3171522E-1,8E0,8E0,2.0534832E0,8.7438054E-2,-1.16373174E-1,3.118997E-1,-1.1603738E-2,1.58E0,3.86E0,-1.1129185E-1,8E0,3.6E-1,2.40374E0,1E0,1E1,9E-1,1.742E1,1.2856807E-1,1.08157985E-1,-1.12388484E-1,5.8139753E-2,2.2788934E-2,-8.8101454E-2,1.0176354E-1,1.7699245E-2,1.1484287E-1,2.583467E-2,7.3398866E-2,-1.02652624E-1,-1.2691417E-1,9.599929E-3,-1.3547543E-1,-8.379939E-2,6.456594E-2,-1.2116082E-1,-1.2885146E-1,-2.178116E-2],"split_indices":[0,0,3,2,7,2,3,0,5,0,2,0,8,8,0,0,0,0,0,5,5,0,8,5,0,2,3,5,5,0,0,0,0,0,0,0,0,0,0,0,0,0,0,0,0,0,0,0,0],"split_type":[0,0,0,0,0,0,0,0,0,0,0,0,0,0,0,0,0,0,0,0,0,0,0,0,0,0,0,0,0,0,0,0,0,0,0,0,0,0,0,0,0,0,0,0,0,0,0,0,0],"sum_hessian":[1.7194219E3,8.218653E2,8.975566E2,6.8599243E2,1.3587286E2,2.1203027E2,6.855263E2,7.104383E0,6.78888E2,4.564742E1,9.022545E1,4.8006424E1,1.6402385E2,1.4561781E2,5.399085E2,3.9755294E0,3.1288536E0,6.7438947E2,4.4985547E0,1.35976E1,3.204982E1,3.8598835E0,8.636556E1,7.826621E1,8.575763E1,6.1079582E1,8.453824E1,2.1939442E1,5.1796906E2,4.988875E2,1.7550195E2,1.0405792E1,3.1918082E0,2.8220392E1,3.8294263E0,6.918177E1,1.7183794E1,2.5640596E1,5.2625618E1,1.4452272E1,7.130536E1,1.9987621E1,4.109196E1,5.96768E1,2.4861437E1,5.776343E0,1.61631E1,5.1326465E2,4.704406E0],"tree_param":{"num_deleted":"0","num_feature":"13","num_nodes":"49","size_leaf_vector":"1"}},{"base_weights":[-8.200704E-3,1.057165E0,-9.137142E-1,1.1445451E0,4.428605E-1,-3.4354344E-1,-1.15358E0,1.2332214E0,7.4516225E-1,-2.0118535E-1,7.6271194E-1,7.2428286E-2,-7.2004634E-1,-1.2475271E0,-1.1580261E-1,-2.443928E-3,1.2454555E0,2.3252852E-1,1.2877642E-1,-7.724654E-1,1.3204421E-1,9.9800026E-1,-1.996716E-1,-1.2731688E-1,3.3020446E-1,1.2957071E-1,-8.370707E-1,-9.4750845E-1,-1.2797254E0,-1.24396406E-1,1.3332245E-1,9.929356E-2,1.2776443E-1,4.4018853E-2,-8.772287E-2,-1.2263174E-1,4.447797E-2,4.3440934E-2,-8.701765E-2,1.2074226E-1,4.32211E-2,9.438643E-2,-1.05500184E-1,5.6733925E-2,-1.21230975E-1,7.609074E-2,-4.0420588E-2,-9.1441445E-2,-4.2922446E-3,1.5318791E-2,-1.1090783E-1,-1.2898104E-1,-5.213187E-2],"categories":[],"categories_nodes":[],"categories_segments":[],"categories_sizes":[],"default_left":[0,0,0,1,0,0,1,0,0,0,0,0,0,0,0,0,0,0,0,1,1,0,1,0,0,1,0,0,1,0,0,0,0,0,0,0,0,0,0,0,0,0,0,0,0,0,0,0,0,0,0,0,0],"id":8,"left_children":[1,3,5,7,9,11,13,15,17,19,21,23,25,27,29,-1,31,33,-1,35,37,39,41,-1,43,45,47,49,51,-1,-1,-1,-1,-1,-1,-1,-1,-1,-1,-1,-1,-1,-1,-1,-1,-1,-1,-1,-1,-1,-1,-1,-1],"loss_changes":[1.5814928E3,3.990735E1,1.2078418E2,2.239148E1,1.9819628E1,4.1380455E1,6.0612915E1,8.31311E0,3.368653E1,6.286004E0,1.4696804E1,4.420163E1,1.3895607E1,4.2855835E0,8.80603E1,0E0,3.0359497E0,1.5150177E1,0E0,7.2446632E0,6.840054E0,5.574974E0,1.4099439E1,0E0,3.972913E1,6.2538223E0,7.4423676E0,1.0719643E1,3.2346802E0,0E0,0E0,0E0,0E0,0E0,0E0,0E0,0E0,0E0,0E0,0E0,0E0,0E0,0E0,0E0,0E0,0E0,0E0,0E0,0E0,0E0,0E0,0E0,0E0],"parents":[2147483647,0,0,1,1,2,2,3,3,4,4,5,5,6,6,7,7,8,8,9,9,10,10,11,11,12,12,13,13,14,14,16,16,17,17,19,19,20,20,21,21,22,22,24,24,25,25,26,26,27,27,28,28],"right_children":[2,4,6,8,10,12,14,16,18,20,22,24,26,28,30,-1,32,34,-1,36,38,40,42,-1,44,46,48,50,52,-1,-1,-1,-1,-1,-1,-1,-1,-1,-1,-1,-1,-1,-1,-1,-1,-1,-1,-1,-1,-1,-1,-1,-1],"split_conditions":[1.1678956E0,7.0861787E-1,5.3333336E-1,8.666667E-1,1E0,8E0,2.8166666E0,1E0,2E0,8.620155E-1,8E0,1E0,5E-2,4E0,1E0,-2.443928E-3,7E-1,1.9E1,1.2877642E-1,1.226E1,6.8333334E-1,7E-1,5.3E-1,-1.2731688E-1,1.135E1,7E0,2.7910868E1,6E-1,2.0833333E0,-1.24396406E-1,1.3332245E-1,9.929356E-2,1.2776443E-1,4.4018853E-2,-8.772287E-2,-1.2263174E-1,4.447797E-2,4.3440934E-2,-8.701765E-2,1.2074226E-1,4.32211E-2,9.438643E-2,-1.05500184E-1,5.6733925E-2,-1.21230975E-1,7.609074E-2,-4.0420588E-2,-9.1441445E-2,-4.2922446E-3,1.5318791E-2,-1.1090783E-1,-1.2898104E-1,-5.213187E-2],"split_indices":[0,0,1,1,7,8,1,2,1,0,8,2,1,3,2,0,7,3,0,4,1,1,4,0,4,3,0,1,1,0,0,0,0,0,0,0,0,0,0,0,0,0,0,0,0,0,0,0,0,0,0,0,0],"split_type":[0,0,0,0,0,0,0,0,0,0,0,0,0,0,0,0,0,0,0,0,0,0,0,0,0,0,0,0,0,0,0,0,0,0,0,0,0,0,0,0,0,0,0,0,0,0,0,0,0,0,0,0,0],"sum_hessian":[1.6373573E3,7.52196E2,8.851613E2,6.5775586E2,9.44401E1,2.6284412E2,6.223172E2,5.365182E2,1.21237724E2,3.1450932E1,6.2989166E1,1.2524774E2,1.3759639E2,5.70463E2,5.1854214E1,5.1513095E0,5.313669E2,6.3084446E1,5.8153275E1,1.1112258E1,2.0338675E1,5.0593258E1,1.2395908E1,1.9496702E1,1.0575104E2,1.6634481E1,1.209619E2,5.826804E1,5.1219495E2,2.9238537E1,2.2615677E1,6.3711224E1,4.6765564E2,5.3656494E1,9.427953E0,8.094843E0,3.0174148E0,1.6067667E1,4.2710066E0,3.608497E1,1.4508289E1,5.25501E0,7.140898E0,9.221349E1,1.3537541E1,7.4344416E0,9.200041E0,1.10077225E2,1.0884676E1,7.457016E0,5.0811024E1,5.047689E2,7.4260592E0],"tree_param":{"num_deleted":"0","num_feature":"13","num_nodes":"53","size_leaf_vector":"1"}},{"base_weights":[6.7733387E-3,1.0070065E0,-8.5819113E-1,1.1295329E0,6.185533E-1,-3.53784E-1,-1.079768E0,1.2131479E0,7.630454E-1,7.8191805E-1,1.5610737E-1,7.753347E-2,-7.0589274E-1,-1.1733937E0,-2.5425544E-1,1.2335578E-1,8.664912E-1,9.1971554E-2,1.2193837E0,1.0940259E-1,4.557705E-1,-1.3111278E-1,9.63464E-1,3.474612E-1,-4.6305487E-1,-2.661408E-1,-9.557131E-1,-7.915792E-1,-1.2390182E0,1.1119701E0,-1.22039236E-1,1.01841465E-1,1.901315E-2,3.4856554E-2,-6.306494E-2,7.32493E-2,1.2569006E-1,5.651213E-2,-5.1127672E-2,3.6513176E-2,-1.12489186E-1,1.1366381E-1,3.7818648E-2,5.8851983E-2,2.375323E-3,5.6777485E-2,-7.3259756E-2,5.647243E-2,-4.6282332E-2,-1.0018579E-1,1.3884208E-2,-1.0197117E-1,2.1700477E-2,-9.2142545E-2,-1.2712435E-1,2.4409192E-2,1.2280782E-1],"categories":[],"categories_nodes":[],"categories_segments":[],"categories_sizes":[],"default_left":[0,0,0,1,0,0,1,1,0,0,0,0,1,0,0,0,0,0,0,0,1,0,0,0,0,0,0,0,0,0,0,0,0,0,0,0,0,0,0,0,0,0,0,0,0,0,0,0,0,0,0,0,0,0,0,0,0],"id":9,"left_children":[1,3,5,7,9,11,13,15,17,19,21,23,25,27,29,-1,31,33,35,-1,37,39,41,43,45,47,49,51,53,55,-1,-1,-1,-1,-1,-1,-1,-1,-1,-1,-1,-1,-1,-1,-1,-1,-1,-1,-1,-1,-1,-1,-1,-1,-1,-1,-1],"loss_changes":[1.3652473E3,3.411389E1,9.418219E1,1.6064514E1,1.329361E1,3.951357E1,4.5090942E1,2.0957031E0,3.228529E1,1.2825844E1,1.1185115E1,1.7326395E1,1.5457855E1,1.2211792E1,8.204291E1,0E0,2.71488E0,8.362301E0,2.0851898E-1,0E0,7.249051E0,1.8182163E1,8.3545685E-1,6.148279E0,1.1419371E1,8.96311E0,4.737793E0,1.8667038E1,3.3937378E0,2.2893028E0,0E0,0E0,0E0,0E0,0E0,0E0,0E0,0E0,0E0,0E0,0E0,0E0,0E0,0E0,0E0,0E0,0E0,0E0,0E0,0E0,0E0,0E0,0E0,0E0,0E0,0E0,0E0],"parents":[2147483647,0,0,1,1,2,2,3,3,4,4,5,5,6,6,7,7,8,8,9,9,10,10,11,11,12,12,13,13,14,14,16,16,17,17,18,18,20,20,21,21,22,22,23,23,24,24,25,25,26,26,27,27,28,28,29,29],"right_children":[2,4,6,8,10,12,14,16,18,20,22,24,26,28,30,-1,32,34,36,-1,38,40,42,44,46,48,50,52,54,56,-1,-1,-1,-1,-1,-1,-1,-1,-1,-1,-1,-1,-1,-1,-1,-1,-1,-1,-1,-1,-1,-1,-1,-1,-1,-1,-1],"split_conditions":[1.1678956E0,4.711024E-1,5.3333336E-1,9E-1,8E0,8E0,2E0,6.78E0,1.9166666E0,1.2E1,1.9666667E0,1.1E1,6E0,3.9462671E0,8.0282E1,1.2335578E-1,5.5E-1,5.69E0,2.0833333E0,1.0940259E-1,8.833333E-1,5.6666666E-1,8.620155E-1,2.3333333E-1,2.0534832E0,2.40374E0,1.658E1,6.44E-1,4E0,2.2166667E0,-1.22039236E-1,1.01841465E-1,1.901315E-2,3.4856554E-2,-6.306494E-2,7.32493E-2,1.2569006E-1,5.651213E-2,-5.1127672E-2,3.6513176E-2,-1.12489186E-1,1.1366381E-1,3.7818648E-2,5.8851983E-2,2.375323E-3,5.6777485E-2,-7.3259756E-2,5.647243E-2,-4.6282332E-2,-1.0018579E-1,1.3884208E-2,-1.0197117E-1,2.1700477E-2,-9.2142545E-2,-1.2712435E-1,2.4409192E-2,1.2280782E-1],"split_indices":[0,0,1,1,8,8,1,5,1,3,1,3,3,0,0,0,1,5,1,0,1,1,0,1,0,0,5,6,3,1,0,0,0,0,0,0,0,0,0,0,0,0,0,0,0,0,0,0,0,0,0,0,0,0,0,0,0],"split_type":[0,0,0,0,0,0,0,0,0,0,0,0,0,0,0,0,0,0,0,0,0,0,0,0,0,0,0,0,0,0,0,0,0,0,0,0,0,0,0,0,0,0,0,0,0,0,0,0,0,0,0,0,0,0,0,0,0],"sum_hessian":[1.5760168E3,7.307893E2,8.4522754E2,5.540855E2,1.767038E2,2.5877734E2,5.864502E2,4.492505E2,1.04834984E2,1.3004968E2,4.665411E1,1.16644485E2,1.4213286E2,5.2632355E2,6.0126648E1,4.2182755E2,2.7422953E1,4.2928875E1,6.1906113E1,6.5236435E1,6.481325E1,3.502061E1,1.1633497E1,7.804876E1,3.8595722E1,5.2255047E1,8.987781E1,7.913236E1,4.4719116E2,2.483951E1,3.528714E1,2.1968002E1,5.4549513E0,3.207198E1,1.0856896E1,5.916258E0,5.5989857E1,5.861159E1,6.201659E0,2.3772375E1,1.1248237E1,8.23713E0,3.3963666E0,4.424871E1,3.380005E1,7.763131E0,3.0832592E1,9.634214E0,4.2620834E1,8.6332E1,3.545803E0,6.4534195E1,1.4598168E1,4.394999E1,4.0324118E2,3.3072317E0,2.153228E1],"tree_param":{"num_deleted":"0","num_feature":"13","num_nodes":"57","size_leaf_vector":"1"}},{"base_weights":[1.7848317E-2,9.6798384E-1,-7.88874E-1,1.1029439E0,4.5831886E-1,-2.8423676E-1,-1.0223004E0,1.1685907E0,8.10991E-1,7.700016E-1,1.1629097E-1,8.471235E-2,-6.132718E-1,-1.1094766E0,-2.2226216E-1,1.1868627E0,8.005963E-1,1.080456E0,2.2735626E-1,9.2275465E-1,3.186465E-1,-8.3347774E-1,5.5162567E-1,8.4144735E-1,-2.6452717E-1,-6.8638855E-1,5.102365E-1,-6.805494E-1,-1.1540099E0,1.190656E-1,-1.18849695E-1,1.2336307E-1,1.0954672E-1,9.893262E-2,3.8730956E-3,6.0739487E-2,1.156626E-1,-2.2071889E-2,1.0683936E-1,9.59202E-2,2.5119482E-2,-3.628907E-2,8.921816E-2,-1.0154325E-2,-1.2795293E-1,1.2506919E-1,3.1160856E-2,1.02021754E-1,3.465439E-2,-1.0463068E-2,-1.354707E-1,-2.1744972E-2,-8.9232795E-2,4.2006527E-3,7.900297E-2,2.7667938E-2,-8.3881244E-2,-3.618316E-2,-1.1667538E-1],"categories":[],"categories_nodes":[],"categories_segments":[],"categories_sizes":[],"default_left":[0,0,0,1,0,0,1,1,0,0,0,0,0,0,0,0,0,0,0,0,0,0,0,0,0,0,1,0,0,0,0,0,0,0,0,0,0,0,0,0,0,0,0,0,0,0,0,0,0,0,0,0,0,0,0,0,0,0,0],"id":10,"left_children":[1,3,5,7,9,11,13,15,17,19,21,23,25,27,29,31,33,35,37,39,41,43,45,47,49,51,53,55,57,-1,-1,-1,-1,-1,-1,-1,-1,-1,-1,-1,-1,-1,-1,-1,-1,-1,-1,-1,-1,-1,-1,-1,-1,-1,-1,-1,-1,-1,-1],"loss_changes":[1.138062E3,4.637445E1,9.428464E1,9.34967E0,1.5302107E1,3.105699E1,3.8003723E1,1.9696045E0,1.5801117E1,4.8915253E0,2.9429598E1,3.2270416E1,1.14513855E1,8.641235E0,7.6732414E1,3.9666748E-1,3.3706045E0,1.7871323E0,1.2881312E1,1.1123619E0,8.384205E0,7.174198E0,7.758832E0,3.0419903E0,1.4435398E1,1.2088112E1,1.1141329E0,7.655916E0,4.0700684E0,0E0,0E0,0E0,0E0,0E0,0E0,0E0,0E0,0E0,0E0,0E0,0E0,0E0,0E0,0E0,0E0,0E0,0E0,0E0,0E0,0E0,0E0,0E0,0E0,0E0,0E0,0E0,0E0,0E0,0E0],"parents":[2147483647,0,0,1,1,2,2,3,3,4,4,5,5,6,6,7,7,8,8,9,9,10,10,11,11,12,12,13,13,14,14,15,15,16,16,17,17,18,18,19,19,20,20,21,21,22,22,23,23,24,24,25,25,26,26,27,27,28,28],"right_children":[2,4,6,8,10,12,14,16,18,20,22,24,26,28,30,32,34,36,38,40,42,44,46,48,50,52,54,56,58,-1,-1,-1,-1,-1,-1,-1,-1,-1,-1,-1,-1,-1,-1,-1,-1,-1,-1,-1,-1,-1,-1,-1,-1,-1,-1,-1,-1,-1,-1],"split_conditions":[1.1678956E0,5.1653993E-1,5.3333336E-1,9E-1,6.666667E-1,8E0,2.0833333E0,6.78E0,1E1,8E0,2E0,1.23E0,2.9778528E1,2.40374E0,8.0282E1,7.8E0,5.5E-1,1.3E0,1.9833333E0,1.049E1,6.03E0,1.0333333E0,6E0,8.2E-1,2.4E1,5.7811356E0,2.25E0,4E0,1E0,1.190656E-1,-1.18849695E-1,1.2336307E-1,1.0954672E-1,9.893262E-2,3.8730956E-3,6.0739487E-2,1.156626E-1,-2.2071889E-2,1.0683936E-1,9.59202E-2,2.5119482E-2,-3.628907E-2,8.921816E-2,-1.0154325E-2,-1.2795293E-1,1.2506919E-1,3.1160856E-2,1.02021754E-1,3.465439E-2,-1.0463068E-2,-1.354707E-1,-2.1744972E-2,-8.9232795E-2,4.2006527E-3,7.900297E-2,2.7667938E-2,-8.3881244E-2,-3.618316E-2,-1.1667538E-1],"split_indices":[0,0,1,1,1,8,1,5,3,8,1,4,0,0,0,4,1,1,1,5,4,1,1,4,3,0,5,3,3,0,0,0,0,0,0,0,0,0,0,0,0,0,0,0,0,0,0,0,0,0,0,0,0,0,0,0,0,0,0],"split_type":[0,0,0,0,0,0,0,0,0,0,0,0,0,0,0,0,0,0,0,0,0,0,0,0,0,0,0,0,0,0,0,0,0,0,0,0,0,0,0,0,0,0,0,0,0,0,0,0,0,0,0,0,0,0,0,0,0,0,0],"sum_hessian":[1.4827616E3,6.807754E2,8.019862E2,5.37311E2,1.4346445E2,2.5435805E2,5.476282E2,4.36194E2,1.01116974E2,7.4392044E1,6.90724E1,1.20242035E2,1.3411601E2,4.9345914E2,5.416902E1,4.134143E2,2.2779684E1,6.8583496E1,3.253348E1,5.4784607E1,1.9607435E1,2.1414625E1,4.7657776E1,3.753347E1,8.2708565E1,1.2629485E2,7.8211684E0,4.7967064E1,4.4549207E2,2.1900894E1,3.2268127E1,2.651353E2,1.48279E2,1.8007236E1,4.772448E0,1.0774275E1,5.780922E1,2.1698797E1,1.0834684E1,5.154397E1,3.2406383E0,9.11995E0,1.0487485E1,8.582124E0,1.2832501E1,1.1093806E1,3.656397E1,2.6778736E1,1.0754735E1,7.309315E1,9.615413E0,3.9181107E1,8.711375E1,3.369026E0,4.4521427E0,6.6903195E0,4.1276745E1,7.5309463E0,4.3796112E2],"tree_param":{"num_deleted":"0","num_feature":"13","num_nodes":"59","size_leaf_vector":"1"}},{"base_weights":[-3.587166E-3,8.976402E-1,-7.5896823E-1,1.0225435E0,5.2972025E-1,-1.2015277E-1,-4.9366483E-1,1.1073651E0,6.447966E-1,-1.2292407E-1,5.9791446E-1,-5.846716E-1,1.4649577E0,1.1331077E0,6.5417206E-1,1.5842208E-1,1.1360561E0,2.0713048E-1,7.97996E-1,-4.206766E-2,-8.452064E-1,7.842726E-2,1.5679131E-1,8.8142045E-2,1.1697763E-1,-1.1921186E-2,8.939529E-2,3.0305972E-2,-1.2622376E-1,1.2122872E-1,5.7357665E-2,4.03505E-2,-6.608929E-2,9.202156E-2,2.363673E-2,5.266669E-2,-6.241402E-2,-8.7878436E-2,1.0872638E-1],"categories":[],"categories_nodes":[],"categories_segments":[],"categories_sizes":[],"default_left":[0,0,0,1,0,0,0,1,0,0,0,0,1,0,0,0,0,1,0,0,1,0,0,0,0,0,0,0,0,0,0,0,0,0,0,0,0,0,0],"id":11,"left_children":[1,3,5,7,9,-1,11,13,15,-1,17,19,21,23,25,27,29,31,33,35,37,-1,-1,-1,-1,-1,-1,-1,-1,-1,-1,-1,-1,-1,-1,-1,-1,-1,-1],"loss_changes":[9.610602E2,2.9024414E1,8.9563965E1,1.4631348E1,2.0549522E1,0E0,8.674108E1,3.792328E0,2.13919E1,0E0,1.2315468E1,6.515401E1,2.6589966E-1,2.342682E0,4.445595E0,9.941482E0,1.2064934E0,9.718279E0,6.998169E0,5.0210148E1,2.1167664E1,0E0,0E0,0E0,0E0,0E0,0E0,0E0,0E0,0E0,0E0,0E0,0E0,0E0,0E0,0E0,0E0,0E0,0E0],"parents":[2147483647,0,0,1,1,2,2,3,3,4,4,6,6,7,7,8,8,10,10,11,11,12,12,13,13,14,14,15,15,16,16,17,17,18,18,19,19,20,20],"right_children":[2,4,6,8,10,-1,12,14,16,-1,18,20,22,24,26,28,30,32,34,36,38,-1,-1,-1,-1,-1,-1,-1,-1,-1,-1,-1,-1,-1,-1,-1,-1,-1,-1],"split_conditions":[1.1678956E0,4.711024E-1,1E0,8.666667E-1,1E0,-1.2015277E-1,2.9778528E1,6.78E0,1.9166666E0,-1.2292407E-1,1E0,6E0,5.7E-1,7E-1,7.6E0,3.6301127E-1,1.3E1,6.333333E-1,8E0,8E0,2.0833333E0,7.842726E-2,1.5679131E-1,8.8142045E-2,1.1697763E-1,-1.1921186E-2,8.939529E-2,3.0305972E-2,-1.2622376E-1,1.2122872E-1,5.7357665E-2,4.03505E-2,-6.608929E-2,9.202156E-2,2.363673E-2,5.266669E-2,-6.241402E-2,-8.7878436E-2,1.0872638E-1],"split_indices":[0,0,2,1,2,0,0,5,1,0,7,3,4,7,5,0,3,1,8,8,1,0,0,0,0,0,0,0,0,0,0,0,0,0,0,0,0,0,0],"split_type":[0,0,0,0,0,0,0,0,0,0,0,0,0,0,0,0,0,0,0,0,0,0,0,0,0,0,0,0,0,0,0,0,0,0,0,0,0,0,0],"sum_hessian":[1.4097262E3,6.4271564E2,7.6701056E2,4.7847437E2,1.6424129E2,2.861349E2,4.8087567E2,3.8913718E2,8.93372E1,5.4890027E0,1.5875227E2,4.6019925E2,2.0676424E1,3.6678076E2,2.2356428E1,4.556657E1,4.3770626E1,5.4463512E1,1.0428877E2,1.4967587E2,3.1052338E2,3.8614385E0,1.6814985E1,4.9860115E1,3.1692062E2,5.40012E0,1.6956308E1,4.207647E1,3.4900985E0,3.7513504E1,6.2571225E0,4.4861156E1,9.602357E0,8.511095E1,1.9177826E1,7.5744774E1,7.39311E1,3.05761E2,4.7623777E0],"tree_param":{"num_deleted":"0","num_feature":"13","num_nodes":"39","size_leaf_vector":"1"}},{"base_weights":[-1.351312E-2,-1.150615E0,2.796964E-1,-1.1633497E0,-5.6306815E-1,5.998476E-1,-1.3401099E-1,-1.17092505E-1,-5.67087E-2,2.553568E-3,-9.547077E-2,2.7457718E-3,7.1024203E-1,-2.0104888E-1,1.18439786E-1,9.072015E-3,-1.3224864E-1,9.55961E-1,5.0436294E-1,4.2588986E-2,-7.790298E-1,1.0231248E-1,3.8872223E-2,3.5975408E-2,1.1778238E-1,2.4693003E-2,-1.3353005E-2,-4.223302E-2,-8.9883834E-2],"categories":[],"categories_nodes":[],"categories_segments":[],"categories_sizes":[],"default_left":[0,1,0,1,0,0,1,0,0,0,0,1,1,1,0,0,0,1,0,1,0,0,0,0,0,0,0,0,0],"id":12,"left_children":[1,3,5,7,9,11,13,-1,-1,-1,-1,15,17,19,-1,-1,-1,21,23,25,27,-1,-1,-1,-1,-1,-1,-1,-1],"loss_changes":[4.5117966E2,1.4033203E0,1.4257788E2,5.4067993E-1,1.8408992E0,3.9981873E1,4.178115E1,0E0,0E0,0E0,0E0,1.1262993E1,2.5404816E1,6.316317E1,0E0,0E0,0E0,8.437515E0,2.6900406E1,1.1416118E1,5.290489E0,0E0,0E0,0E0,0E0,0E0,0E0,0E0,0E0],"parents":[2147483647,0,0,1,1,2,2,3,3,4,4,5,5,6,6,11,11,12,12,13,13,17,17,18,18,19,19,20,20],"right_children":[2,4,6,8,10,12,14,-1,-1,-1,-1,16,18,20,-1,-1,-1,22,24,26,28,-1,-1,-1,-1,-1,-1,-1,-1],"split_conditions":[1E0,2.176E1,8E0,2.6E1,6.5E-1,7E-1,2E0,-1.17092505E-1,-5.67087E-2,2.553568E-3,-9.547077E-2,2.6666668E-1,3E-1,6.5E-1,1.18439786E-1,9.072015E-3,-1.3224864E-1,1.135E1,2.0833333E0,6E0,8.5E-1,1.0231248E-1,3.8872223E-2,3.5975408E-2,1.1778238E-1,2.4693003E-2,-1.3353005E-2,-4.223302E-2,-8.9883834E-2],"split_indices":[2,4,8,3,1,7,1,0,0,0,0,1,1,1,0,0,0,4,1,3,1,0,0,0,0,0,0,0,0],"split_type":[0,0,0,0,0,0,0,0,0,0,0,0,0,0,0,0,0,0,0,0,0,0,0,0,0,0,0,0,0],"sum_hessian":[1.35124E3,2.7640765E2,1.0748324E3,2.695679E2,6.8397717E0,6.0568884E2,4.6914355E2,2.652179E2,4.350005E0,3.0959954E0,3.7437763E0,9.468291E1,5.1100592E2,4.472567E2,2.188683E1,8.966938E1,5.0135326E0,2.3127943E2,2.7972647E2,3.1526938E2,1.3198735E2,2.0605965E2,2.521979E1,2.315549E2,4.8171577E1,1.4578174E2,1.6948764E2,3.434434E1,9.7643005E1],"tree_param":{"num_deleted":"0","num_feature":"13","num_nodes":"29","size_leaf_vector":"1"}},{"base_weights":[1.0827603E-4,-1.1326226E0,2.7126953E-1,-1.1404821E0,-4.9899846E-2,5.5867547E-1,-8.455279E-2,-4.8506353E-2,-1.1481779E0,-6.714563E-2,6.7191917E-1,-1.449707E-1,1.2143707E-1,-1.154616E-1,-4.873892E-2,1.3533826E-3,-1.2612319E-1,7.470961E-1,1.0102719E-2,9.127783E-2,-6.5111756E-1,8.921924E-2,5.3776722E-2,-3.5531636E-2,3.8956244E-2,-5.2703083E-2,1.7849445E-2,-4.3333624E-2,-9.463314E-2],"categories":[],"categories_nodes":[],"categories_segments":[],"categories_sizes":[],"default_left":[0,1,0,0,0,0,1,0,1,1,1,1,0,0,0,0,0,1,0,0,0,0,0,0,0,0,0,0,0],"id":13,"left_children":[1,3,5,7,-1,9,11,-1,13,15,17,19,-1,-1,-1,-1,-1,21,23,25,27,-1,-1,-1,-1,-1,-1,-1,-1],"loss_changes":[4.044148E2,6.809387E-1,1.0869619E2,6.897278E-1,0E0,4.1711075E1,3.7484974E1,0E0,4.7061157E-1,8.793126E0,2.4755432E1,5.4508865E1,0E0,0E0,0E0,0E0,0E0,1.30842285E1,7.3231263E0,1.6876905E1,8.900135E0,0E0,0E0,0E0,0E0,0E0,0E0,0E0,0E0],"parents":[2147483647,0,0,1,1,2,2,3,3,5,5,6,6,8,8,9,9,10,10,11,11,17,17,18,18,19,19,20,20],"right_children":[2,4,6,8,-1,10,12,-1,14,16,18,20,-1,-1,-1,-1,-1,22,24,26,28,-1,-1,-1,-1,-1,-1,-1,-1],"split_conditions":[1E0,2.6E1,8E0,8.3333336E-2,-4.9899846E-2,7E-1,2.0833333E0,-4.8506353E-2,2.53E1,2.6666668E-1,5.85E0,6E-1,1.2143707E-1,-1.154616E-1,-4.873892E-2,1.3533826E-3,-1.2612319E-1,4.3333334E-1,7.6E0,7E-1,1E0,8.921924E-2,5.3776722E-2,-3.5531636E-2,3.8956244E-2,-5.2703083E-2,1.7849445E-2,-4.3333624E-2,-9.463314E-2],"split_indices":[2,3,8,1,0,7,1,0,4,1,5,1,0,0,0,0,0,1,5,7,7,0,0,0,0,0,0,0,0],"split_type":[0,0,0,0,0,0,0,0,0,0,0,0,0,0,0,0,0,0,0,0,0,0,0,0,0,0,0,0,0],"sum_hessian":[1.3146847E3,2.5331012E2,1.0613746E3,2.4940086E2,3.909266E0,5.8683356E2,4.7454108E2,3.6526034E0,2.4574826E2,8.996679E1,4.9686676E2,4.5430566E2,2.0235405E1,2.4262189E2,3.1263726E0,8.519108E1,4.775716E0,4.4605463E2,5.0812145E1,3.1027975E2,1.4402591E2,2.614917E2,1.8456293E2,2.5903952E1,2.4908192E1,3.7719044E1,2.725607E2,8.43224E1,5.9703503E1],"tree_param":{"num_deleted":"0","num_feature":"13","num_nodes":"29","size_leaf_vector":"1"}},{"base_weights":[4.987819E-3,-1.0913119E0,2.5461844E-1,-7.236103E-1,-1.1285497E-1,5.2066845E-1,-6.658916E-2,-1.0128515E0,-5.0478504E-4,6.8935776E-1,2.8240708E-1,1.2448333E-1,-3.700254E-1,-1.1314147E-1,-3.3469543E-2,-5.316141E-2,5.1596116E-2,9.2002857E-1,4.9823862E-1,2.1850597E-2,7.553168E-1,1.6194504E-1,-1.1465305E-1,-5.1831436E-1,1.1619411E-1,9.5616974E-2,4.511997E-2,3.0849857E-2,1.1331838E-1,-5.3201016E-2,4.1241314E-2,8.416134E-2,-1.1025627E-1,3.6141958E-2,-7.552864E-4,-2.4986183E-2,-7.1139574E-2],"categories":[],"categories_nodes":[],"categories_segments":[],"categories_sizes":[],"default_left":[0,0,0,1,0,0,1,0,0,0,0,1,0,0,0,0,0,1,0,1,1,1,0,0,0,0,0,0,0,0,0,0,0,0,0,0,0],"id":14,"left_children":[1,3,5,7,-1,9,11,13,15,17,19,21,23,-1,-1,-1,-1,25,27,29,31,33,-1,35,-1,-1,-1,-1,-1,-1,-1,-1,-1,-1,-1,-1,-1],"loss_changes":[3.506072E2,2.418274E0,8.9216896E1,5.147485E0,0E0,2.274147E1,2.7508827E1,1.022213E0,2.4843943E0,1.4231506E1,2.9347603E1,1.40484295E1,4.223162E1,0E0,0E0,0E0,0E0,2.0948105E0,2.1876823E1,3.3690033E1,1.4494751E1,9.604929E0,0E0,8.510239E0,0E0,0E0,0E0,0E0,0E0,0E0,0E0,0E0,0E0,0E0,0E0,0E0,0E0],"parents":[2147483647,0,0,1,1,2,2,3,3,5,5,6,6,7,7,8,8,9,9,10,10,11,11,12,12,17,17,18,18,19,19,20,20,21,21,23,23],"right_children":[2,4,6,8,-1,10,12,14,16,18,20,22,24,-1,-1,-1,-1,26,28,30,32,34,-1,36,-1,-1,-1,-1,-1,-1,-1,-1,-1,-1,-1,-1,-1],"split_conditions":[1E0,6.8333334E-1,8E0,7.93E0,-1.1285497E-1,8.07E0,5.3333336E-1,5.3333336E-1,3.1666666E-1,3.8333333E-1,3E-2,1.56E-1,2.0833333E0,-1.1314147E-1,-3.3469543E-2,-5.316141E-2,5.1596116E-2,2.1E1,2E0,1.28E0,1.5E-1,6E0,-1.1465305E-1,8.333333E-1,1.1619411E-1,9.5616974E-2,4.511997E-2,3.0849857E-2,1.1331838E-1,-5.3201016E-2,4.1241314E-2,8.416134E-2,-1.1025627E-1,3.6141958E-2,-7.552864E-4,-2.4986183E-2,-7.1139574E-2],"split_indices":[2,1,8,4,0,4,1,1,1,1,6,6,1,0,0,0,0,3,1,5,1,3,0,1,0,0,0,0,0,0,0,0,0,0,0,0,0],"split_type":[0,0,0,0,0,0,0,0,0,0,0,0,0,0,0,0,0,0,0,0,0,0,0,0,0,0,0,0,0,0,0,0,0,0,0,0,0],"sum_hessian":[1.2791466E3,2.366114E2,1.0425352E3,2.3662117E1,2.1294928E2,5.699045E2,4.7263068E2,1.6605438E1,7.0566773E0,3.3253452E2,2.3736996E2,2.9035327E2,1.822774E2,1.3552855E1,3.0525846E0,3.4741042E0,3.582573E0,1.4892435E2,1.8361017E2,1.5373486E2,8.36351E1,2.828957E2,7.4575825E0,1.6679994E2,1.547745E1,1.372808E2,1.1643544E1,1.4252206E2,4.1088116E1,6.3416092E1,9.031877E1,8.045064E1,3.1844642E0,1.2946307E2,1.5343262E2,7.0761665E1,9.6038284E1],"tree_param":{"num_deleted":"0","num_feature":"13","num_nodes":"37","size_leaf_vector":"1"}},{"base_weights":[-1.2983553E-2,8.5681975E-1,-6.9868845E-1,9.6419555E-1,4.6170387E-1,-2.4323568E-1,-9.244686E-1,1.052672E0,5.734244E-1,7.2549574E-2,6.655257E-1,4.4111666E-1,-3.966472E-1,-9.8708403E-1,-2.2517593E-1,2.6801798E-2,1.0637248E0,2.5863424E-1,1.1096888E-1,4.409938E-1,-2.8333458E-1,7.2832125E-1,-5.0392053E-3,9.6216065E-1,2.3195319E-1,-4.780616E-1,5.28362E-1,-6.521836E-1,-1.0703412E0,-1.0788641E-1,9.7174734E-1,1.0945703E-1,8.595069E-2,3.6052164E-2,-7.1344666E-2,6.96831E-2,5.8561843E-3,-5.932821E-2,4.438364E-2,7.9361185E-2,3.6367662E-2,1.2216772E-1,1.544984E-2,5.3190272E-2,-2.6913447E-2,-1.52202565E-2,-7.2831444E-2,-9.834244E-2,1.2304845E-1,-7.624478E-2,4.721792E-2,-8.326938E-2,-1.1138153E-1,3.231725E-2,1.1025605E-1],"categories":[],"categories_nodes":[],"categories_segments":[],"categories_sizes":[],"default_left":[0,0,0,1,0,0,1,0,0,0,1,0,0,0,0,0,1,0,0,0,1,0,0,0,0,0,0,0,0,0,0,0,0,0,0,0,0,0,0,0,0,0,0,0,0,0,0,0,0,0,0,0,0,0,0],"id":15,"left_children":[1,3,5,7,9,11,13,15,17,19,21,23,25,27,29,-1,31,33,-1,35,37,39,-1,41,43,45,47,49,51,-1,53,-1,-1,-1,-1,-1,-1,-1,-1,-1,-1,-1,-1,-1,-1,-1,-1,-1,-1,-1,-1,-1,-1,-1,-1],"loss_changes":[7.308677E2,2.2458618E1,7.022571E1,1.4033264E1,9.253923E0,2.4161236E1,1.9808655E1,2.6880798E0,1.3281996E1,5.565854E0,3.50008E0,4.374811E0,1.4347879E1,1.09904175E1,4.082524E1,0E0,1.1765137E0,5.405449E0,0E0,1.9854031E0,5.1547494E0,1.3845673E0,0E0,2.2676573E0,4.8824162E0,1.3952637E1,1.7778069E1,1.1046143E1,2.510498E0,0E0,1.0485773E0,0E0,0E0,0E0,0E0,0E0,0E0,0E0,0E0,0E0,0E0,0E0,0E0,0E0,0E0,0E0,0E0,0E0,0E0,0E0,0E0,0E0,0E0,0E0,0E0],"parents":[2147483647,0,0,1,1,2,2,3,3,4,4,5,5,6,6,7,7,8,8,9,9,10,10,11,11,12,12,13,13,14,14,16,16,17,17,19,19,20,20,21,21,23,23,24,24,25,25,26,26,27,27,28,28,30,30],"right_children":[2,4,6,8,10,12,14,16,18,20,22,24,26,28,30,-1,32,34,-1,36,38,40,-1,42,44,46,48,50,52,-1,54,-1,-1,-1,-1,-1,-1,-1,-1,-1,-1,-1,-1,-1,-1,-1,-1,-1,-1,-1,-1,-1,-1,-1,-1],"split_conditions":[9.570389E-1,4.711024E-1,4.6666667E-1,9E-1,1E0,2.0534832E0,2E0,1E0,2.0833333E0,6.7279416E-1,6.78E0,8.3333336E-2,2.9778528E1,3.9462671E0,1E0,2.6801798E-2,3.98E0,3.7960798E-1,1.1096888E-1,8.5E-1,1.58E0,8E0,-5.0392053E-3,1.54E0,8E0,8E0,1E0,3.5726128E0,7.3333335E-1,-1.0788641E-1,2.6666667E0,1.0945703E-1,8.595069E-2,3.6052164E-2,-7.1344666E-2,6.96831E-2,5.8561843E-3,-5.932821E-2,4.438364E-2,7.9361185E-2,3.6367662E-2,1.2216772E-1,1.544984E-2,5.3190272E-2,-2.6913447E-2,-1.52202565E-2,-7.2831444E-2,-9.834244E-2,1.2304845E-1,-7.624478E-2,4.721792E-2,-8.326938E-2,-1.1138153E-1,3.231725E-2,1.1025605E-1],"split_indices":[0,0,1,1,7,0,1,2,1,0,5,1,0,0,2,0,5,0,0,7,5,8,0,5,8,8,2,0,1,0,1,0,0,0,0,0,0,0,0,0,0,0,0,0,0,0,0,0,0,0,0,0,0,0,0],"split_type":[0,0,0,0,0,0,0,0,0,0,0,0,0,0,0,0,0,0,0,0,0,0,0,0,0,0,0,0,0,0,0,0,0,0,0,0,0,0,0,0,0,0,0,0,0,0,0,0,0,0,0,0,0,0,0],"sum_hessian":[1.2234061E3,5.3919E2,6.842161E2,4.2281982E2,1.16370186E2,2.27472E2,4.5674414E2,3.4335883E2,7.946102E1,4.04825E1,7.588769E1,4.1299377E1,1.8617262E2,4.1881693E2,3.7927208E1,5.1327205E0,3.382261E2,5.1015545E1,2.8445477E1,1.9786566E1,2.0695934E1,6.9765E1,6.1226854E0,1.0785049E1,3.0514328E1,1.7156627E2,1.4606353E1,8.517113E1,3.336458E2,2.2200216E1,1.5726991E1,2.900131E2,4.8213005E1,4.6754448E1,4.261097E0,1.1347275E1,8.43929E0,1.4649601E1,6.046334E0,5.814939E1,1.1615611E1,7.765017E0,3.020032E0,1.906221E1,1.1452119E1,7.52413E1,9.632497E1,4.500704E0,1.0105649E1,7.786576E1,7.3053713E0,5.4749035E1,2.7889676E2,3.234953E0,1.2492039E1],"tree_param":{"num_deleted":"0","num_feature":"13","num_nodes":"55","size_leaf_vector":"1"}},{"base_weights":[2.7715315E-3,7.114229E-1,-7.612835E-1,9.116283E-1,3.246392E-1,-4.5617095E-1,-1.0020945E0,9.7431874E-1,4.0237564E-1,-4.6219297E-2,5.4260087E-1,-1.2214424E-1,-7.827255E-1,-1.0572653E0,-6.153844E-1,1.0276155E0,7.7523094E-1,6.243249E-1,-7.5247335E-1,6.137762E-2,-8.865866E-2,6.3983965E-1,-4.9889863E-1,6.44254E-1,-3.3661646E-1,8.682636E-2,-8.661215E-1,-1.087276E0,-3.7780753E-1,4.1305336E-1,-1.1301813E-1,1.1080507E-1,9.373745E-2,8.562833E-2,3.9520655E-2,5.287528E-2,1.0829311E-1,-1.703085E-1,2.8601786E-2,2.5657106E-2,-3.6180526E-2,9.273074E-2,4.3447684E-2,3.0213892E-2,-1.049995E-1,8.860071E-3,9.61523E-2,1.435707E-2,-5.1116046E-2,9.405442E-2,-5.0666686E-2,-6.932493E-3,-9.224742E-2,-3.3235138E-3,-1.0994668E-1,-1.118897E-1,2.1816155E-2,-5.1070433E-2,1.4737152E-1],"categories":[],"categories_nodes":[],"categories_segments":[],"categories_sizes":[],"default_left":[0,0,0,1,0,0,0,0,0,0,1,0,0,1,0,0,1,0,0,1,0,1,0,0,0,0,0,0,0,0,0,0,0,0,0,0,0,0,0,0,0,0,0,0,0,0,0,0,0,0,0,0,0,0,0,0,0,0,0],"id":16,"left_children":[1,3,5,7,9,11,13,15,17,19,21,23,25,27,29,31,33,35,37,39,-1,41,43,45,47,49,51,53,55,57,-1,-1,-1,-1,-1,-1,-1,-1,-1,-1,-1,-1,-1,-1,-1,-1,-1,-1,-1,-1,-1,-1,-1,-1,-1,-1,-1,-1,-1],"loss_changes":[6.349201E2,4.6802185E1,4.098654E1,1.23741455E1,1.6929848E1,2.7246708E1,6.0426025E0,2.9596558E0,1.2156237E1,7.1422296E0,1.3666054E1,2.0786013E1,9.263184E0,5.158081E0,2.254221E1,9.549866E-1,2.0894318E0,1.1119537E0,8.198496E0,5.901501E0,0E0,6.724949E0,5.536295E0,4.787443E0,8.329196E0,6.549361E0,5.1174927E0,3.3147583E0,6.051891E0,1.5097073E1,0E0,0E0,0E0,0E0,0E0,0E0,0E0,0E0,0E0,0E0,0E0,0E0,0E0,0E0,0E0,0E0,0E0,0E0,0E0,0E0,0E0,0E0,0E0,0E0,0E0,0E0,0E0,0E0,0E0],"parents":[2147483647,0,0,1,1,2,2,3,3,4,4,5,5,6,6,7,7,8,8,9,9,10,10,11,11,12,12,13,13,14,14,15,15,16,16,17,17,18,18,19,19,21,21,22,22,23,23,24,24,25,25,26,26,27,27,28,28,29,29],"right_children":[2,4,6,8,10,12,14,16,18,20,22,24,26,28,30,32,34,36,38,40,-1,42,44,46,48,50,52,54,56,58,-1,-1,-1,-1,-1,-1,-1,-1,-1,-1,-1,-1,-1,-1,-1,-1,-1,-1,-1,-1,-1,-1,-1,-1,-1,-1,-1,-1,-1],"split_conditions":[1.9299599E0,4.711024E-1,1.2E1,5.69E0,1E0,8E0,1.28801E0,2.511698E-1,2E1,3E-2,6.78E0,8.5E-1,8.5E-1,1.011E1,1.2353847E1,1.65E0,1.4E1,3.443276E-1,1.383E1,6E0,-8.865866E-2,4E0,7.0861787E-1,1.0286467E1,6.6E-1,6E-1,2.40374E0,3E-2,1.3440768E1,7E-1,-1.1301813E-1,1.1080507E-1,9.373745E-2,8.562833E-2,3.9520655E-2,5.287528E-2,1.0829311E-1,-1.703085E-1,2.8601786E-2,2.5657106E-2,-3.6180526E-2,9.273074E-2,4.3447684E-2,3.0213892E-2,-1.049995E-1,8.860071E-3,9.61523E-2,1.435707E-2,-5.1116046E-2,9.405442E-2,-5.0666686E-2,-6.932493E-3,-9.224742E-2,-3.3235138E-3,-1.0994668E-1,-1.118897E-1,2.1816155E-2,-5.1070433E-2,1.4737152E-1],"split_indices":[0,0,3,5,7,8,6,0,3,6,5,4,7,5,0,5,3,0,4,3,0,3,0,0,5,5,0,4,0,7,0,0,0,0,0,0,0,0,0,0,0,0,0,0,0,0,0,0,0,0,0,0,0,0,0,0,0,0,0],"split_type":[0,0,0,0,0,0,0,0,0,0,0,0,0,0,0,0,0,0,0,0,0,0,0,0,0,0,0,0,0,0,0,0,0,0,0,0,0,0,0,0,0,0,0,0,0,0,0,0,0,0,0,0,0,0,0,0,0,0,0],"sum_hessian":[1.1706327E3,6.0737866E2,5.63254E2,3.9930783E2,2.0807083E2,2.4975056E2,3.1350345E2,3.5470923E2,4.459858E1,7.729561E1,1.3077522E2,1.2415715E2,1.25593414E2,2.72821E2,4.068245E1,2.7648172E2,7.8227516E1,3.780158E1,6.797001E0,6.933351E1,7.962093E0,1.19969604E2,1.080561E1,2.6699223E1,9.7457924E1,1.0977048E1,1.1461637E2,2.6069168E2,1.2129329E1,1.36304245E1,2.7052027E1,1.4016133E2,1.363204E2,6.342134E1,1.4806172E1,3.3082127E1,4.7194514E0,3.2195578E0,3.5774431E0,4.7733665E1,2.159985E1,4.8506233E1,7.146338E1,4.580825E0,6.2247844E0,1.0180406E1,1.6518816E1,2.601322E1,7.14447E1,4.268729E0,6.708319E0,7.729736E0,1.06886635E2,3.032608E0,2.5765906E2,5.0227995E0,7.106529E0,7.5574884E0,6.072936E0],"tree_param":{"num_deleted":"0","num_feature":"13","num_nodes":"59","size_leaf_vector":"1"}},{"base_weights":[1.7991854E-2,6.984546E-1,-6.494575E-1,8.695031E-1,3.321266E-1,-2.510259E-1,-8.888533E-1,9.616398E-1,4.938561E-1,-1.0542214E-1,3.8625976E-1,4.976262E-2,-4.4515887E-1,-9.4945097E-1,-2.1371332E-1,1.01177525E-2,9.7326064E-1,1.249706E-1,1.05451696E-1,8.954719E-1,2.7144265E-1,1.6008307E-1,-1.4107825E-1,-5.2867717E-1,4.7804236E-1,-1.0162314E0,-4.3084913E-1,-1.0517681E-1,1.0935823E-1,9.919858E-2,7.074634E-2,3.0403936E-2,-7.8944996E-2,1.0757338E-1,5.080075E-2,1.5899755E-2,1.09247684E-1,8.321162E-2,-9.638337E-3,-3.7049916E-2,-1.3196947E-1,-8.837449E-2,1.1175778E-1,-4.7772374E-2,-1.1038566E-1,4.678875E-2,-1.0673644E-1],"categories":[],"categories_nodes":[],"categories_segments":[],"categories_sizes":[],"default_left":[0,0,0,1,0,0,1,0,0,0,0,0,0,0,0,0,1,0,0,0,1,0,0,0,0,0,0,0,0,0,0,0,0,0,0,0,0,0,0,0,0,0,0,0,0,0,0],"id":17,"left_children":[1,3,5,7,9,11,13,15,17,-1,19,21,23,25,27,-1,29,31,-1,33,35,37,-1,39,41,43,45,-1,-1,-1,-1,-1,-1,-1,-1,-1,-1,-1,-1,-1,-1,-1,-1,-1,-1,-1,-1],"loss_changes":[5.081287E2,3.441223E1,5.36382E1,1.2559418E1,1.3757E1,1.248702E1,1.4203125E1,2.9074097E0,1.5644245E1,0E0,9.802879E0,1.3842255E1,1.0262371E1,1.0736633E1,3.4378265E1,0E0,7.6208496E-1,7.961895E0,0E0,1.6168671E0,1.2907159E1,1.3798077E1,0E0,1.4449741E1,1.0817894E1,1.2927185E1,2.2592539E1,0E0,0E0,0E0,0E0,0E0,0E0,0E0,0E0,0E0,0E0,0E0,0E0,0E0,0E0,0E0,0E0,0E0,0E0,0E0,0E0],"parents":[2147483647,0,0,1,1,2,2,3,3,4,4,5,5,6,6,7,7,8,8,10,10,11,11,12,12,13,13,14,14,16,16,17,17,19,19,20,20,21,21,23,23,24,24,25,25,26,26],"right_children":[2,4,6,8,10,12,14,16,18,-1,20,22,24,26,28,-1,30,32,-1,34,36,38,-1,40,42,44,46,-1,-1,-1,-1,-1,-1,-1,-1,-1,-1,-1,-1,-1,-1,-1,-1,-1,-1,-1,-1],"split_conditions":[1.583389E0,4.711024E-1,5.3333336E-1,9E-1,1E0,6E0,2.0833333E0,1E0,2E0,-1.0542214E-1,1.5E-1,4.75E0,2.9778528E1,1.28801E0,1E0,1.01177525E-2,6.78E0,1.9E1,1.05451696E-1,8E0,1.9166666E0,1E-1,-1.4107825E-1,2.1701336E1,1E0,4E0,1.3145489E1,-1.0517681E-1,1.0935823E-1,9.919858E-2,7.074634E-2,3.0403936E-2,-7.8944996E-2,1.0757338E-1,5.080075E-2,1.5899755E-2,1.09247684E-1,8.321162E-2,-9.638337E-3,-3.7049916E-2,-1.3196947E-1,-8.837449E-2,1.1175778E-1,-4.7772374E-2,-1.1038566E-1,4.678875E-2,-1.0673644E-1],"split_indices":[0,0,1,1,2,3,1,2,1,0,1,5,0,6,2,0,5,3,0,8,1,1,0,0,2,3,0,0,0,0,0,0,0,0,0,0,0,0,0,0,0,0,0,0,0,0,0],"split_type":[0,0,0,0,0,0,0,0,0,0,0,0,0,0,0,0,0,0,0,0,0,0,0,0,0,0,0,0,0,0,0,0,0,0,0,0,0,0,0,0,0,0,0,0,0,0,0],"sum_hessian":[1.1167965E3,5.5299164E2,5.6380493E2,3.7601785E2,1.7697375E2,2.1239752E2,3.5140738E2,3.0068167E2,7.5336205E1,5.949447E0,1.710243E2,8.3584435E1,1.288131E2,3.2207794E2,2.9329441E1,4.147495E0,2.9653418E2,4.6187786E1,2.9148417E1,3.0200287E1,1.4082402E2,7.854861E1,5.0358286E0,1.1852847E2,1.028462E1,2.844681E2,3.7609856E1,1.7996025E1,1.1333416E1,2.7443103E2,2.2103127E1,3.919146E1,6.996327E0,1.9381289E1,1.0818999E1,1.2492121E2,1.5902806E1,2.1087172E1,5.7461433E1,1.000106E2,1.8517874E1,3.1594956E0,7.125125E0,4.0729218E1,2.4373888E2,1.5696366E1,2.191349E1],"tree_param":{"num_deleted":"0","num_feature":"13","num_nodes":"47","size_leaf_vector":"1"}},{"base_weights":[1.7071007E-3,6.4104724E-1,-6.902209E-1,9.2273164E-1,3.6308166E-1,-1.09190784E-1,-5.0529885E-1,9.936301E-1,5.7462245E-1,-1.164768E-1,4.2497736E-1,-5.9825957E-1,1.3249077E0,7.6074266E-1,1.0246438E-1,4.694152E-1,1.0503315E-1,1.2119306E-1,5.7980305E-1,-2.7031973E-1,-8.2682073E-1,8.0090284E-2,1.547403E-1,4.7998454E-2,9.4417E-2,7.629635E-2,1.0586108E-2,4.367323E-2,-1.2894648E-2,9.242841E-2,4.3522887E-2,7.163747E-2,-4.9781416E-2,-2.546124E-2,-9.014794E-2],"categories":[],"categories_nodes":[],"categories_segments":[],"categories_sizes":[],"default_left":[0,0,0,1,0,0,0,0,0,0,0,0,0,0,0,0,0,0,1,0,0,0,0,0,0,0,0,0,0,0,0,0,0,0,0],"id":18,"left_children":[1,3,5,7,9,-1,11,13,15,-1,17,19,21,23,-1,25,-1,27,29,31,33,-1,-1,-1,-1,-1,-1,-1,-1,-1,-1,-1,-1,-1,-1],"loss_changes":[4.7406818E2,4.326375E1,3.7660675E1,6.22464E0,2.7156807E1,0E0,6.106311E1,8.4858704E-1,1.94874E0,0E0,1.2705139E1,2.5089401E1,7.6948166E-1,1.1136684E0,0E0,4.395669E0,0E0,7.402588E0,8.535549E0,3.1839485E1,8.242828E0,0E0,0E0,0E0,0E0,0E0,0E0,0E0,0E0,0E0,0E0,0E0,0E0,0E0,0E0],"parents":[2147483647,0,0,1,1,2,2,3,3,4,4,6,6,7,7,8,8,10,10,11,11,12,12,13,13,15,15,17,17,18,18,19,19,20,20],"right_children":[2,4,6,8,10,-1,12,14,16,-1,18,20,22,24,-1,26,-1,28,30,32,34,-1,-1,-1,-1,-1,-1,-1,-1,-1,-1,-1,-1,-1,-1],"split_conditions":[1.9299599E0,2.511698E-1,1E0,3.98E0,1E0,-1.09190784E-1,2.9778528E1,7E-1,1.982E1,-1.164768E-1,1E0,8E0,3.4334625E1,6.44E-1,1.0246438E-1,3.81E0,1.0503315E-1,6.7279416E-1,2.9E-1,3.7E-1,2.9E-1,8.0090284E-2,1.547403E-1,4.7998454E-2,9.4417E-2,7.629635E-2,1.0586108E-2,4.367323E-2,-1.2894648E-2,9.242841E-2,4.3522887E-2,7.163747E-2,-4.9781416E-2,-2.546124E-2,-9.014794E-2],"split_indices":[0,0,2,5,2,0,0,7,4,0,7,8,0,6,0,4,0,0,5,5,4,0,0,0,0,0,0,0,0,0,0,0,0,0,0],"split_type":[0,0,0,0,0,0,0,0,0,0,0,0,0,0,0,0,0,0,0,0,0,0,0,0,0,0,0,0,0,0,0,0,0,0,0],"sum_hessian":[1.0696385E3,5.5599146E2,5.136471E2,2.7497855E2,2.810129E2,1.6035835E2,3.5328873E2,2.2688614E2,4.8092396E1,1.0241023E1,2.7077188E2,3.3685748E2,1.6431242E1,2.9701714E1,1.9718443E2,4.1026756E1,7.06564E0,9.203564E1,1.7873625E2,1.3926555E2,1.9759193E2,6.2816753E0,1.0149567E1,1.31876545E1,1.651406E1,2.207576E1,1.8950994E1,4.0385395E1,5.165024E1,5.1223137E1,1.27513115E2,2.5682375E1,1.13583176E2,2.3329723E1,1.742622E2],"tree_param":{"num_deleted":"0","num_feature":"13","num_nodes":"35","size_leaf_vector":"1"}},{"base_weights":[-1.0865378E-2,-1.0326883E0,1.7922564E-1,-1.06518805E-1,-7.028269E-1,4.1283938E-1,-1.0733162E-1,-1.4550835E-1,-9.980212E-2,7.6772285E-1,2.7229846E-1,7.44633E-2,-4.7812983E-1,-3.837568E-2,1.3060132E-2,8.8949794E-1,2.2752811E-1,1.8532792E-1,1.0810136E-1,1.0685239E0,3.6140107E-2,-6.6015285E-1,1.0866161E-1,9.384915E-2,6.522072E-2,-1.3136478E-1,4.9977258E-2,3.010729E-2,-3.9317008E-2,4.7181685E-2,1.2807837E-1,-4.511075E-2,1.0309334E-2,3.280012E-2,-7.2451524E-2],"categories":[],"categories_nodes":[],"categories_segments":[],"categories_sizes":[],"default_left":[0,1,0,0,0,0,1,0,0,0,1,0,0,0,0,0,0,1,0,0,0,0,0,0,0,0,0,0,0,0,0,0,0,0,0],"id":19,"left_children":[1,3,5,-1,7,9,11,13,-1,15,17,19,21,-1,-1,23,25,27,-1,29,31,33,-1,-1,-1,-1,-1,-1,-1,-1,-1,-1,-1,-1,-1],"loss_changes":[1.9857294E2,9.5269775E-1,5.775034E1,0E0,2.6975374E0,2.3475098E1,2.6187008E1,5.2560896E-1,0E0,8.614273E0,2.3832558E1,9.898127E0,3.7102467E1,0E0,0E0,6.4097595E-1,1.1576534E1,2.086761E1,0E0,6.002426E-1,8.279581E0,7.560501E0,0E0,0E0,0E0,0E0,0E0,0E0,0E0,0E0,0E0,0E0,0E0,0E0,0E0],"parents":[2147483647,0,0,1,1,2,2,4,4,5,5,6,6,7,7,9,9,10,10,11,11,12,12,15,15,16,16,17,17,19,19,20,20,21,21],"right_children":[2,4,6,-1,8,10,12,14,-1,16,18,20,22,-1,-1,24,26,28,-1,30,32,34,-1,-1,-1,-1,-1,-1,-1,-1,-1,-1,-1,-1,-1],"split_conditions":[1E0,1.2E1,8E0,-1.06518805E-1,6.8333334E-1,2.6666668E-1,6E-1,3.81E0,-9.980212E-2,1.135E1,2.0833333E0,1.6666668E-2,2.0833333E0,-3.837568E-2,1.3060132E-2,2.1666667E-1,2.77E0,9.8333335E-1,1.0810136E-1,1.53E0,7E-1,8.5E-1,1.0866161E-1,9.384915E-2,6.522072E-2,-1.3136478E-1,4.9977258E-2,3.010729E-2,-3.9317008E-2,4.7181685E-2,1.2807837E-1,-4.511075E-2,1.0309334E-2,3.280012E-2,-7.2451524E-2],"split_indices":[2,3,8,0,1,1,1,4,0,4,1,1,1,0,0,1,5,1,0,4,7,7,0,0,0,0,0,0,0,0,0,0,0,0,0],"split_type":[0,0,0,0,0,0,0,0,0,0,0,0,0,0,0,0,0,0,0,0,0,0,0,0,0,0,0,0,0,0,0,0,0,0,0],"sum_hessian":[1.0203137E3,1.5935117E2,8.609626E2,1.4300226E2,1.6348904E1,4.7407257E2,3.8689E2,6.1897073E0,1.0159197E1,1.3319774E2,3.4087482E2,2.6012714E2,1.26762886E2,3.132819E0,3.056888E0,1.08152084E2,2.5045658E1,3.0889706E2,3.1977764E1,8.648625E0,2.514785E2,1.1407709E2,1.2685805E1,8.71591E1,2.0992975E1,3.1802547E0,2.1865404E1,2.578114E2,5.108565E1,3.1272376E0,5.521388E0,2.967001E1,2.218085E2,6.7159305E0,1.0736115E2],"tree_param":{"num_deleted":"0","num_feature":"13","num_nodes":"35","size_leaf_vector":"1"}},{"base_weights":[7.949752E-3,6.716632E-1,-5.721401E-1,8.2670754E-1,4.3521264E-1,-1.07310966E-1,-3.946209E-1,9.1411436E-1,4.0026787E-1,-1.02136604E-1,4.8061714E-1,-4.721648E-1,1.3239254E-1,1.01060085E-1,7.5058323E-1,-2.546007E-2,9.5189637E-1,5.9345734E-1,1.411667E-1,-1.2628275E-1,-7.280883E-1,5.50919E-2,9.509864E-2,-1.6133687E-1,2.3706935E-2,1.07532874E-1,1.6102873E-2,4.449061E-2,8.074876E-2,-2.9418955E-2,1.06497005E-1,5.2254733E-2,-3.1240782E-2,-2.9317224E-2,-8.303431E-2],"categories":[],"categories_nodes":[],"categories_segments":[],"categories_sizes":[],"default_left":[0,0,0,1,0,0,0,0,0,0,1,0,0,0,0,0,0,1,0,0,0,0,0,0,0,0,0,0,0,0,0,0,0,0,0],"id":20,"left_children":[1,3,5,7,9,-1,11,13,15,-1,17,19,-1,-1,21,23,25,27,29,31,33,-1,-1,-1,-1,-1,-1,-1,-1,-1,-1,-1,-1,-1,-1],"loss_changes":[3.8245322E2,1.6611725E1,4.6701492E1,1.0008087E1,1.27609825E1,0E0,5.2985695E1,2.8603516E0,1.1588117E1,0E0,6.8298836E0,3.3249397E1,0E0,0E0,3.0401535E0,1.2374401E1,1.9101486E0,3.9291992E0,1.8987694E1,1.9657701E1,9.365051E0,0E0,0E0,0E0,0E0,0E0,0E0,0E0,0E0,0E0,0E0,0E0,0E0,0E0,0E0],"parents":[2147483647,0,0,1,1,2,2,3,3,4,4,6,6,7,7,8,8,10,10,11,11,14,14,15,15,16,16,17,17,18,18,19,19,20,20],"right_children":[2,4,6,8,10,-1,12,14,16,-1,18,20,-1,-1,22,24,26,28,30,32,34,-1,-1,-1,-1,-1,-1,-1,-1,-1,-1,-1,-1,-1,-1],"split_conditions":[1.1678956E0,3.118997E-1,1E0,1.0166667E0,1E0,-1.07310966E-1,2.9778528E1,3.98E0,1.9166666E0,-1.02136604E-1,6.666667E-1,8E0,1.3239254E-1,1.01060085E-1,6.44E-1,6E-1,3.28E0,1.57E0,2E0,2.6466887E0,2.1666667E-1,5.50919E-2,9.509864E-2,-1.6133687E-1,2.3706935E-2,1.07532874E-1,1.6102873E-2,4.449061E-2,8.074876E-2,-2.9418955E-2,1.06497005E-1,5.2254733E-2,-3.1240782E-2,-2.9317224E-2,-8.303431E-2],"split_indices":[0,0,2,1,2,0,0,5,1,0,1,3,0,0,6,5,5,5,1,0,1,0,0,0,0,0,0,0,0,0,0,0,0,0,0],"split_type":[0,0,0,0,0,0,0,0,0,0,0,0,0,0,0,0,0,0,0,0,0,0,0,0,0,0,0,0,0,0,0,0,0,0,0],"sum_hessian":[9.913496E2,4.622839E2,5.290657E2,2.7767166E2,1.8461224E2,1.3708955E2,3.9197614E2,2.2947035E2,4.8201317E1,4.9243307E0,1.7968791E2,3.7575256E2,1.6223564E1,1.4102307E2,8.844727E1,2.7733372E1,2.0467947E1,1.3427457E2,4.5413345E1,1.6044405E2,2.1530852E2,4.6208298E1,4.223897E1,3.2100437E0,2.4523329E1,1.7382671E1,3.0852761E0,8.1106606E1,5.3167965E1,3.1322748E1,1.4090598E1,3.5350685E1,1.2509337E2,4.1740444E1,1.7356808E2],"tree_param":{"num_deleted":"0","num_feature":"13","num_nodes":"35","size_leaf_vector":"1"}},{"base_weights":[2.2662338E-2,7.353238E-1,-4.370393E-1,8.386223E-1,4.3539497E-1,-6.262785E-2,-7.1501654E-1,9.003827E-1,5.0586295E-1,2.3217322E-1,1.0447617E-1,2.8497124E-1,-3.1435657E-1,-7.9856557E-1,1.2273893E-1,5.280445E-1,9.624703E-1,7.2518677E-1,1.1219603E-1,5.940136E-1,-1.095305E-1,1.1839919E0,1.3346471E-1,-5.8043534E-3,-5.46271E-1,-2.7068958E-1,-8.9510334E-1,9.7587705E-2,-9.926164E-2,1.0823638E-2,7.894914E-2,1.035276E-1,7.99292E-2,4.4517353E-2,9.873505E-2,8.517734E-2,-2.0652479E-2,2.5488675E-2,1.0082783E-1,1.3552156E-2,-8.013652E-2,1.6009517E-1,5.3125292E-2,6.520065E-2,-1.1199865E-2,8.7679386E-2,-2.3574939E-2,-1.0063491E-1,-2.1521408E-2,-1.1592465E-2,-1.16175316E-1,-9.7914346E-2,-2.9422536E-2],"categories":[],"categories_nodes":[],"categories_segments":[],"categories_sizes":[],"default_left":[0,1,0,0,0,1,1,0,1,0,0,0,0,0,0,0,1,0,0,0,0,0,0,0,0,1,0,0,0,0,0,0,0,0,0,0,0,0,0,0,0,0,0,0,0,0,0,0,0,0,0,0,0],"id":21,"left_children":[1,3,5,7,9,11,13,15,17,19,-1,21,23,25,27,29,31,33,35,37,39,41,43,45,47,49,51,-1,-1,-1,-1,-1,-1,-1,-1,-1,-1,-1,-1,-1,-1,-1,-1,-1,-1,-1,-1,-1,-1,-1,-1,-1,-1],"loss_changes":[3.1225223E2,1.1200943E1,6.0250366E1,5.2207184E0,1.1861473E1,2.178913E1,2.3371536E1,4.845413E0,3.8518782E0,9.302629E0,0E0,1.4085374E1,1.0318632E1,1.5156921E1,3.0467508E1,3.7940836E0,1.5041046E0,1.6837139E0,4.315291E0,4.8494425E0,6.7670193E0,3.1993904E0,1.1624191E1,1.2977495E1,1.231621E1,6.500139E0,1.2586609E1,0E0,0E0,0E0,0E0,0E0,0E0,0E0,0E0,0E0,0E0,0E0,0E0,0E0,0E0,0E0,0E0,0E0,0E0,0E0,0E0,0E0,0E0,0E0,0E0,0E0,0E0],"parents":[2147483647,0,0,1,1,2,2,3,3,4,4,5,5,6,6,7,7,8,8,9,9,11,11,12,12,13,13,14,14,15,15,16,16,17,17,18,18,19,19,20,20,21,21,22,22,23,23,24,24,25,25,26,26],"right_children":[2,4,6,8,10,12,14,16,18,20,-1,22,24,26,28,30,32,34,36,38,40,42,44,46,48,50,52,-1,-1,-1,-1,-1,-1,-1,-1,-1,-1,-1,-1,-1,-1,-1,-1,-1,-1,-1,-1,-1,-1,-1,-1,-1,-1],"split_conditions":[7.0861787E-1,6.8333334E-1,5.3333336E-1,4.711024E-1,2E0,6E0,2E0,7E-1,1.6666667E-1,1.276517E-1,1.0447617E-1,2.9E-1,8E0,1.3636131E0,8.0282E1,3E-2,3.81E0,6.1305726E-1,3E0,2.56E0,1.5E1,8.119822E0,1E-1,8.1E-1,1.17E0,7.8E0,6.44E-1,9.7587705E-2,-9.926164E-2,1.0823638E-2,7.894914E-2,1.035276E-1,7.99292E-2,4.4517353E-2,9.873505E-2,8.517734E-2,-2.0652479E-2,2.5488675E-2,1.0082783E-1,1.3552156E-2,-8.013652E-2,1.6009517E-1,5.3125292E-2,6.520065E-2,-1.1199865E-2,8.7679386E-2,-2.3574939E-2,-1.0063491E-1,-2.1521408E-2,-1.1592465E-2,-1.16175316E-1,-9.7914346E-2,-2.9422536E-2],"split_indices":[0,1,1,0,1,3,1,7,1,0,0,4,8,0,0,6,4,0,3,4,3,0,1,4,4,4,6,0,0,0,0,0,0,0,0,0,0,0,0,0,0,0,0,0,0,0,0,0,0,0,0,0,0],"split_type":[0,0,0,0,0,0,0,0,0,0,0,0,0,0,0,0,0,0,0,0,0,0,0,0,0,0,0,0,0,0,0,0,0,0,0,0,0,0,0,0,0,0,0,0,0,0,0,0,0,0,0,0,0],"sum_hessian":[9.51127E2,3.7272498E2,5.7840204E2,2.758798E2,9.684517E1,2.4698958E2,3.3141245E2,2.3122784E2,4.4651966E1,7.367291E1,2.3172253E1,1.0366803E2,1.4332156E2,3.014115E2,3.0000933E1,3.442822E1,1.9679962E2,2.8118668E1,1.6533298E1,3.5437725E1,3.823519E1,1.3958609E1,8.970942E1,6.1957676E1,8.136388E1,4.7204002E1,2.542075E2,1.707457E1,1.2926362E1,1.3769927E1,2.065829E1,1.3234514E2,6.4454475E1,1.4919539E1,1.3199128E1,4.4849873E0,1.2048311E1,2.0387472E1,1.5050252E1,2.8817513E1,9.417681E0,7.6218786E0,6.33673E0,2.8303253E1,6.1406166E1,1.2215265E1,4.9742413E1,3.318117E1,4.818271E1,4.1191032E1,6.0129695E0,2.2244911E2,3.1758385E1],"tree_param":{"num_deleted":"0","num_feature":"13","num_nodes":"53","size_leaf_vector":"1"}},{"base_weights":[2.1445889E-3,5.403505E-1,-5.894298E-1,8.259982E-1,3.022977E-1,-3.334129E-1,-9.330051E-1,9.087549E-1,4.246625E-1,-1.0930222E-1,3.5679144E-1,9.560143E-3,-6.1518306E-1,-3.8159606E-1,-1.0308889E0,1.0219361E-1,7.613515E-1,-9.425199E-2,6.6766244E-1,4.9806944E-1,-6.4882636E-2,-1.02765046E-1,2.1670568E-1,-3.2605475E-1,-9.329788E-1,-8.838321E-1,9.0607184E-1,-1.1012937E-1,-3.2691252E-1,8.47753E-2,1.2036602E-2,3.2457888E-2,9.5762245E-2,8.93288E-2,4.157195E-2,-4.1314024E-2,8.524914E-2,-2.6419027E-2,5.6764048E-2,5.4604877E-2,-5.061503E-2,-9.887903E-2,1.0174538E-2,2.3094172E-2,-1.21900335E-1,4.1730206E-2,1.2800406E-1,1.4389451E-2,-9.807445E-2],"categories":[],"categories_nodes":[],"categories_segments":[],"categories_sizes":[],"default_left":[0,0,0,1,0,0,0,0,0,0,1,0,0,0,1,0,1,0,0,0,0,0,0,0,0,0,0,0,0,0,0,0,0,0,0,0,0,0,0,0,0,0,0,0,0,0,0,0,0],"id":22,"left_children":[1,3,5,7,9,11,13,15,17,-1,19,21,23,25,27,-1,29,-1,31,33,35,-1,37,39,41,43,45,-1,47,-1,-1,-1,-1,-1,-1,-1,-1,-1,-1,-1,-1,-1,-1,-1,-1,-1,-1,-1,-1],"loss_changes":[2.898267E2,3.2151093E1,3.7819656E1,6.7771606E0,2.0272367E1,2.4177103E1,9.555267E0,2.177658E0,1.3528734E1,0E0,1.5079578E1,2.465368E1,1.2299469E1,1.9833414E1,7.3652344E0,0E0,4.3949394E0,0E0,3.0155554E0,5.7757225E0,2.0870417E1,0E0,1.6294554E1,1.1812166E1,3.8549347E0,8.393404E0,1.0475149E0,0E0,4.9615555E0,0E0,0E0,0E0,0E0,0E0,0E0,0E0,0E0,0E0,0E0,0E0,0E0,0E0,0E0,0E0,0E0,0E0,0E0,0E0,0E0],"parents":[2147483647,0,0,1,1,2,2,3,3,4,4,5,5,6,6,7,7,8,8,10,10,11,11,12,12,13,13,14,14,16,16,18,18,19,19,20,20,22,22,23,23,24,24,25,25,26,26,28,28],"right_children":[2,4,6,8,10,12,14,16,18,-1,20,22,24,26,28,-1,30,-1,32,34,36,-1,38,40,42,44,46,-1,48,-1,-1,-1,-1,-1,-1,-1,-1,-1,-1,-1,-1,-1,-1,-1,-1,-1,-1,-1,-1],"split_conditions":[1.9299599E0,2.37747E-1,6.82E0,1.0666667E0,1E0,8E0,3.9462671E0,3.77E0,1.3E0,-1.0930222E-1,6.8333334E-1,1E0,4.6666667E-1,6.44E-1,1.712E1,1.0219361E-1,1.5E1,-9.425199E-2,1.9166666E0,4E0,1.9166666E0,-1.02765046E-1,9.313035E0,2.9E-1,4.366667E0,1.8333334E-1,3.3526843E0,-1.1012937E-1,6.333333E-1,8.47753E-2,1.2036602E-2,3.2457888E-2,9.5762245E-2,8.93288E-2,4.157195E-2,-4.1314024E-2,8.524914E-2,-2.6419027E-2,5.6764048E-2,5.4604877E-2,-5.061503E-2,-9.887903E-2,1.0174538E-2,2.3094172E-2,-1.21900335E-1,4.1730206E-2,1.2800406E-1,1.4389451E-2,-9.807445E-2],"split_indices":[0,0,4,1,2,8,0,4,1,0,1,2,1,6,4,0,3,0,1,3,1,0,0,4,1,1,0,0,1,0,0,0,0,0,0,0,0,0,0,0,0,0,0,0,0,0,0,0,0],"split_type":[0,0,0,0,0,0,0,0,0,0,0,0,0,0,0,0,0,0,0,0,0,0,0,0,0,0,0,0,0,0,0,0,0,0,0,0,0,0,0,0,0,0,0,0,0,0,0,0,0],"sum_hessian":[9.082928E2,4.7565353E2,4.3263928E2,2.1507086E2,2.6058267E2,2.4905453E2,1.8358475E2,1.7723515E2,3.7835697E1,9.07123E0,2.5151144E2,1.1274769E2,1.3630684E2,2.8430079E1,1.5515468E2,9.686119E1,8.037397E1,5.269311E0,3.2566387E1,1.882744E2,6.323705E1,1.810147E1,9.464622E1,7.24499E1,6.3856945E1,2.0683979E1,7.7461E0,1.405224E2,1.46322775E1,7.052887E1,9.8451E0,1.590331E1,1.6663076E1,3.0746258E1,1.5752814E2,4.624273E1,1.699432E1,4.002184E1,5.4624374E1,1.2043302E1,6.0406597E1,6.064016E1,3.2167842E0,4.8463244E0,1.5837655E1,4.2864323E0,3.4596674E0,8.951306E0,5.680971E0],"tree_param":{"num_deleted":"0","num_feature":"13","num_nodes":"49","size_leaf_vector":"1"}},{"base_weights":[3.143994E-2,5.1600975E-1,-5.2268106E-1,7.1337837E-1,2.0838162E-1,-1.0504687E-1,-3.4436288E-1,8.4121275E-1,2.3035817E-1,-1.26852E-1,4.2768702E-1,-4.090505E-1,1.1132115E0,5.015778E-1,9.0079063E-1,-8.426647E-2,1.006721E-1,3.0800013E-2,-8.1241596E-1,7.5520444E-1,9.4005615E-2,-4.533647E-1,1.032023E-1,3.7104834E-2,1.295743E-1,8.698069E-2,3.0478576E-2,1.0106261E-1,7.3740326E-2,2.418305E-2,-5.7603158E-2,-1.28966095E-2,9.759479E-2,-1.0059732E-1,-1.5614961E-2,8.740348E-2,4.1883823E-2,-8.683129E-2,1.6648915E-2,1.9251697E-3,-6.1606564E-2],"categories":[],"categories_nodes":[],"categories_segments":[],"categories_sizes":[],"default_left":[0,0,0,1,0,0,0,0,0,1,1,1,0,0,1,0,0,1,0,1,0,0,0,0,0,0,0,0,0,0,0,0,0,0,0,0,0,0,0,0,0],"id":23,"left_children":[1,3,5,7,9,-1,11,13,15,17,19,21,23,25,27,29,-1,31,33,35,37,39,-1,-1,-1,-1,-1,-1,-1,-1,-1,-1,-1,-1,-1,-1,-1,-1,-1,-1,-1],"loss_changes":[2.3675066E2,2.8400383E1,3.8338898E1,1.746083E1,1.3677502E1,0E0,2.9580795E1,4.1037445E0,1.5058771E1,8.032924E0,1.2187159E1,1.9401989E1,1.3167248E0,2.3307037E0,2.6621552E0,7.2804904E0,0E0,9.365451E0,1.595355E0,1.8788223E0,4.0963764E0,2.2197304E1,0E0,0E0,0E0,0E0,0E0,0E0,0E0,0E0,0E0,0E0,0E0,0E0,0E0,0E0,0E0,0E0,0E0,0E0,0E0],"parents":[2147483647,0,0,1,1,2,2,3,3,4,4,6,6,7,7,8,8,9,9,10,10,11,11,12,12,13,13,14,14,15,15,17,17,18,18,19,19,20,20,21,21],"right_children":[2,4,6,8,10,-1,12,14,16,18,20,22,24,26,28,30,-1,32,34,36,38,40,-1,-1,-1,-1,-1,-1,-1,-1,-1,-1,-1,-1,-1,-1,-1,-1,-1,-1,-1],"split_conditions":[2.0534832E0,4.711024E-1,1E0,9E-1,1E0,-1.0504687E-1,2.9778528E1,7E-1,2.0833333E0,6.166667E-1,7E0,2.0833333E0,6.5E-1,6.1447047E-2,2.73E0,1E1,1.006721E-1,8.34E0,1.65E0,6.666667E-1,1E0,2.1666667E-1,1.032023E-1,3.7104834E-2,1.295743E-1,8.698069E-2,3.0478576E-2,1.0106261E-1,7.3740326E-2,2.418305E-2,-5.7603158E-2,-1.28966095E-2,9.759479E-2,-1.0059732E-1,-1.5614961E-2,8.740348E-2,4.1883823E-2,-8.683129E-2,1.6648915E-2,1.9251697E-3,-6.1606564E-2],"split_indices":[0,0,2,1,7,0,0,7,1,1,3,1,4,0,4,3,0,4,1,1,2,1,0,0,0,0,0,0,0,0,0,0,0,0,0,0,0,0,0,0,0],"split_type":[0,0,0,0,0,0,0,0,0,0,0,0,0,0,0,0,0,0,0,0,0,0,0,0,0,0,0,0,0,0,0,0,0,0,0,0,0,0,0,0,0],"sum_hessian":[8.797148E2,4.6935675E2,4.1035803E2,2.8509412E2,1.8426266E2,1.02381454E2,3.079766E2,2.2482932E2,6.026479E1,7.301966E1,1.11243004E2,2.9558466E2,1.2391917E1,3.498386E1,1.8984546E2,4.3510525E1,1.6754263E1,6.0132175E1,1.2887484E1,5.5487392E1,5.5755608E1,2.8743805E2,8.146618E0,3.0555978E0,9.336319E0,1.0975748E1,2.4008112E1,1.103902E2,7.945525E1,2.6455431E1,1.7055096E1,5.216694E1,7.9652367E0,9.528936E0,3.3585474E0,3.9799103E1,1.5688291E1,3.1267176E0,5.2628887E1,7.3821205E1,2.1361685E2],"tree_param":{"num_deleted":"0","num_feature":"13","num_nodes":"41","size_leaf_vector":"1"}},{"base_weights":[2.3370914E-2,-9.6425295E-1,1.6655989E-1,-5.6763834E-1,-1.0261595E-1,3.4564438E-1,-4.8161585E-2,-8.479019E-1,-4.967579E-3,5.765926E-1,1.4147659E-1,-1.433318E-1,3.8906592E-1,-4.0218778E-2,-9.6908405E-2,7.968044E-1,4.7904107E-1,9.774857E-3,5.7582116E-1,6.428671E-1,-2.146943E-1,-3.9202195E-1,9.307201E-1,8.333924E-2,1.4194268E-2,3.857748E-2,9.989878E-2,4.428581E-2,-2.6942058E-2,4.3574434E-2,6.975156E-2,9.623565E-2,2.8951768E-2,-1.0055686E-2,-6.0311295E-2,-5.9268163E-3,-8.692696E-2,1.0197755E-1,-5.896622E-4],"categories":[],"categories_nodes":[],"categories_segments":[],"categories_sizes":[],"default_left":[0,0,0,1,0,0,0,0,0,0,0,0,0,0,0,0,0,0,0,0,0,0,1,0,0,0,0,0,0,0,0,0,0,0,0,0,0,0,0],"id":24,"left_children":[1,3,5,7,-1,9,11,13,-1,15,17,19,21,-1,-1,23,25,27,29,31,33,35,37,-1,-1,-1,-1,-1,-1,-1,-1,-1,-1,-1,-1,-1,-1,-1,-1],"loss_changes":[1.19462326E2,2.0279694E0,2.8386814E1,2.3734632E0,0E0,1.8884315E1,1.4048186E1,1.7787075E-1,0E0,3.654007E0,1.2282814E1,1.5672319E1,2.591212E1,0E0,0E0,1.2212982E0,6.0572834E0,2.0186872E1,5.3655815E-1,2.337613E0,1.122259E1,3.9756813E0,3.0150642E0,0E0,0E0,0E0,0E0,0E0,0E0,0E0,0E0,0E0,0E0,0E0,0E0,0E0,0E0,0E0,0E0],"parents":[2147483647,0,0,1,1,2,2,3,3,5,5,6,6,7,7,9,9,10,10,11,11,12,12,15,15,16,16,17,17,18,18,19,19,20,20,21,21,22,22],"right_children":[2,4,6,8,-1,10,12,14,-1,16,18,20,22,-1,-1,24,26,28,30,32,34,36,38,-1,-1,-1,-1,-1,-1,-1,-1,-1,-1,-1,-1,-1,-1,-1,-1],"split_conditions":[1E0,6.8333334E-1,8E0,7.93E0,-1.0261595E-1,1E1,1.9166666E0,1E0,-4.967579E-3,2.1666667E-1,3E-2,8.5E-1,7E-1,-4.0218778E-2,-9.6908405E-2,1.475E1,2E0,4.1666666E-1,7E-1,2.6666668E-1,8.5E-1,3E-2,1.4E1,8.333924E-2,1.4194268E-2,3.857748E-2,9.989878E-2,4.428581E-2,-2.6942058E-2,4.3574434E-2,6.975156E-2,9.623565E-2,2.8951768E-2,-1.0055686E-2,-6.0311295E-2,-5.9268163E-3,-8.692696E-2,1.0197755E-1,-5.896622E-4],"split_indices":[2,1,8,4,0,3,1,7,0,1,6,7,7,0,0,4,1,1,7,1,1,6,3,0,0,0,0,0,0,0,0,0,0,0,0,0,0,0,0],"split_type":[0,0,0,0,0,0,0,0,0,0,0,0,0,0,0,0,0,0,0,0,0,0,0,0,0,0,0,0,0,0,0,0,0,0,0,0,0,0,0],"sum_hessian":[8.4267377E2,1.059685E2,7.367053E2,1.570197E1,9.0266525E1,4.013792E2,3.3532608E2,9.763014E0,5.938956E0,1.8745868E2,2.1392053E2,2.7595474E2,5.9371326E1,3.0278428E0,6.7351713E0,5.5316757E1,1.3214192E2,1.6495001E2,4.8970528E1,2.2285656E1,2.536691E2,2.4417728E1,3.4953598E1,5.2117023E1,3.1997342E0,1.1353719E2,1.8604733E1,6.4440544E1,1.0050947E2,2.4933521E1,2.4037004E1,1.0783587E1,1.15020685E1,1.970502E2,5.661889E1,1.5061479E1,9.35625E0,3.1847374E1,3.1062226E0],"tree_param":{"num_deleted":"0","num_feature":"13","num_nodes":"39","size_leaf_vector":"1"}},{"base_weights":[1.3253461E-2,5.2816087E-1,-4.1550845E-1,6.889606E-1,1.6600172E-1,-1.0399693E-1,-2.5939226E-1,7.9871106E-1,4.2143133E-1,7.7307713E-1,7.9697184E-2,1.1351227E-1,-4.695785E-1,-1.2277942E-2,8.202574E-1,2.7147815E-1,9.895154E-2,9.092732E-2,2.4087539E-2,2.3253222E-1,-3.1395918E-1,3.5963E-2,1.24755815E-1,-5.2216023E-1,8.546461E-1,9.506781E-2,6.957337E-2,3.9272435E-2,-2.7643755E-2,1.5440742E-4,6.3908316E-2,-5.869272E-2,9.233749E-2,2.3956338E-2,-4.5402873E-2,-6.116692E-2,1.89024E-2,3.2116283E-2,1.1843985E-1],"categories":[],"categories_nodes":[],"categories_segments":[],"categories_sizes":[],"default_left":[0,0,0,1,0,0,0,0,0,0,1,0,0,0,0,0,0,0,0,1,0,0,0,0,0,0,0,0,0,0,0,0,0,0,0,0,0,0,0],"id":25,"left_children":[1,3,5,7,9,-1,11,13,15,17,19,21,23,-1,25,27,-1,-1,-1,29,31,33,-1,35,37,-1,-1,-1,-1,-1,-1,-1,-1,-1,-1,-1,-1,-1,-1],"loss_changes":[1.8205568E2,2.1696175E1,4.3582962E1,7.2596817E0,6.03584E0,0E0,2.8376217E1,3.7332916E0,6.322776E0,8.115339E-1,6.27904E0,1.146563E1,1.6547062E1,0E0,2.222252E0,4.276825E0,0E0,0E0,0E0,7.0268936E0,1.0420839E1,1.2445346E1,0E0,1.4320305E1,1.2238574E0,0E0,0E0,0E0,0E0,0E0,0E0,0E0,0E0,0E0,0E0,0E0,0E0,0E0,0E0],"parents":[2147483647,0,0,1,1,2,2,3,3,4,4,6,6,7,7,8,8,9,9,10,10,11,11,12,12,14,14,15,15,19,19,20,20,21,21,23,23,24,24],"right_children":[2,4,6,8,10,-1,12,14,16,18,20,22,24,-1,26,28,-1,-1,-1,30,32,34,-1,36,38,-1,-1,-1,-1,-1,-1,-1,-1,-1,-1,-1,-1,-1,-1],"split_conditions":[1.1678956E0,4.711024E-1,1E0,6.8333334E-1,2.9E-1,-1.0399693E-1,6E0,1E0,2.0833333E0,1.0333333E0,5E-1,2.9424564E1,2.9778528E1,-1.2277942E-2,3.8333333E-1,1.7E1,9.895154E-2,9.092732E-2,2.4087539E-2,1.4E0,2E0,6E-1,1.24755815E-1,6.44E-1,3.4334625E1,9.506781E-2,6.957337E-2,3.9272435E-2,-2.7643755E-2,1.5440742E-4,6.3908316E-2,-5.869272E-2,9.233749E-2,2.3956338E-2,-4.5402873E-2,-6.116692E-2,1.89024E-2,3.2116283E-2,1.1843985E-1],"split_indices":[0,0,2,1,5,0,3,2,1,1,1,0,0,0,1,3,0,0,0,5,1,1,0,6,0,0,0,0,0,0,0,0,0,0,0,0,0,0,0],"split_type":[0,0,0,0,0,0,0,0,0,0,0,0,0,0,0,0,0,0,0,0,0,0,0,0,0,0,0,0,0,0,0,0,0,0,0,0,0,0,0],"sum_hessian":[8.2263043E2,3.7367242E2,4.4895804E2,2.5813135E2,1.15541084E2,8.8646935E1,3.603111E2,1.8160666E2,7.652468E1,1.3376429E1,1.0216466E2,1.300297E2,2.302814E2,4.0313745E0,1.7757529E2,6.1726624E1,1.4798059E1,1.0071679E1,3.3047495E0,7.390581E1,2.8258844E1,1.22680954E2,7.3487406E0,2.2207652E2,8.204875E0,8.3454216E1,9.412108E1,5.0789173E1,1.0937451E1,4.7784634E1,2.612118E1,2.3588684E1,4.670161E0,8.704407E1,3.563688E1,1.9738751E2,2.4689018E1,3.8998535E0,4.305022E0],"tree_param":{"num_deleted":"0","num_feature":"13","num_nodes":"39","size_leaf_vector":"1"}},{"base_weights":[-4.4256607E-3,-9.503574E-1,1.1734882E-1,-4.5539516E-1,-1.03608064E-1,7.843335E-2,1.0465111E-1,-8.051183E-1,1.5184832E-2,1.6057956E-1,-3.3812857E-1,-9.320589E-2,-3.896468E-2,-2.2714089E-1,2.3740132E-1,4.3120256E-1,-4.3489528E-1,6.651366E-2,-2.7929792E-2,4.4419613E-2,1.8127833E-3,7.226526E-2,-2.9672671E-2,-3.2156404E-2,-1.1630781E-1],"categories":[],"categories_nodes":[],"categories_segments":[],"categories_sizes":[],"default_left":[0,0,1,1,0,1,0,0,0,0,0,0,0,0,0,0,0,0,0,0,0,0,0,0,0],"id":26,"left_children":[1,3,5,7,-1,9,-1,11,-1,13,15,-1,-1,17,19,21,23,-1,-1,-1,-1,-1,-1,-1,-1],"loss_changes":[9.066522E1,3.3221893E0,2.5119461E1,3.3257031E0,0E0,2.2990923E1,0E0,1.3632107E-1,0E0,1.6752365E1,8.43013E0,0E0,0E0,4.51931E0,2.1227741E1,2.9472027E0,7.769518E0,0E0,0E0,0E0,0E0,0E0,0E0,0E0,0E0],"parents":[2147483647,0,0,1,1,2,2,3,3,5,5,7,7,9,9,10,10,13,13,14,14,15,15,16,16],"right_children":[2,4,6,8,-1,10,-1,12,-1,14,16,-1,-1,18,20,22,24,-1,-1,-1,-1,-1,-1,-1,-1],"split_conditions":[1E0,6.8333334E-1,2.0833333E0,7.93E0,-1.03608064E-1,8.833333E-1,1.0465111E-1,1.7E1,1.5184832E-2,7E-1,1.7E-1,-9.320589E-2,-3.896468E-2,3.23E0,8E0,1.6E1,2E1,6.651366E-2,-2.7929792E-2,4.4419613E-2,1.8127833E-3,7.226526E-2,-2.9672671E-2,-3.2156404E-2,-1.1630781E-1],"split_indices":[2,1,1,4,0,1,0,3,0,7,5,0,0,4,8,3,3,0,0,0,0,0,0,0,0],"split_type":[0,0,0,0,0,0,0,0,0,0,0,0,0,0,0,0,0,0,0,0,0,0,0,0,0],"sum_hessian":[7.8505E2,8.877018E1,6.962798E2,1.4053716E1,7.471646E1,6.693414E2,2.6938398E1,8.721466E0,5.3322496E0,5.5962213E2,1.0971924E2,5.7095585E0,3.011908E0,9.220011E1,4.6742203E2,1.186094E1,9.78583E1,4.432181E0,8.776794E1,2.4000458E2,2.2741747E2,8.484773E0,3.376167E0,8.593852E1,1.1919775E1],"tree_param":{"num_deleted":"0","num_feature":"13","num_nodes":"25","size_leaf_vector":"1"}},{"base_weights":[-1.6746782E-3,4.9790546E-1,-4.467421E-1,7.0166355E-1,2.786215E-1,-1.0282675E-1,-3.2005727E-1,7.934528E-1,3.2195386E-1,-1.0044642E-1,3.1330398E-1,-3.758038E-1,1.0318545E0,8.301881E-1,2.8499603E-1,5.7477206E-1,-4.428536E-1,3.9211908E-1,-9.566567E-2,-8.591535E-2,-6.053612E-1,6.591683E-1,1.2958652E-1,5.1537592E-2,8.901656E-2,-2.8568277E-2,7.7490784E-2,6.8943E-3,7.6385595E-2,-1.013806E-1,4.096074E-2,5.5690408E-2,1.0497711E-2,1.3216085E-2,-1.16953254E-1,2.065718E-2,-3.806657E-2,1.6382948E-2,-6.830402E-2,1.9949649E-2,9.957863E-2],"categories":[],"categories_nodes":[],"categories_segments":[],"categories_sizes":[],"default_left":[0,0,0,1,0,0,0,1,0,0,1,0,0,0,0,0,0,0,0,0,0,0,0,0,0,0,0,0,0,0,0,0,0,0,0,0,0,0,0,0,0],"id":27,"left_children":[1,3,5,7,9,-1,11,13,15,-1,17,19,21,23,25,27,29,31,33,35,37,39,-1,-1,-1,-1,-1,-1,-1,-1,-1,-1,-1,-1,-1,-1,-1,-1,-1,-1,-1],"loss_changes":[1.7569183E2,1.6428413E1,3.0443848E1,6.435257E0,8.361947E0,0E0,2.6352314E1,2.6315155E0,7.8234425E0,0E0,5.745592E0,2.2014408E1,4.9462128E-1,2.2314453E0,3.5610728E0,2.7948923E0,5.423934E0,6.9668503E0,7.353403E0,1.2819903E1,1.1166519E1,9.9905014E-1,0E0,0E0,0E0,0E0,0E0,0E0,0E0,0E0,0E0,0E0,0E0,0E0,0E0,0E0,0E0,0E0,0E0,0E0,0E0],"parents":[2147483647,0,0,1,1,2,2,3,3,4,4,6,6,7,7,8,8,10,10,11,11,12,12,13,13,14,14,15,15,16,16,17,17,18,18,19,19,20,20,21,21],"right_children":[2,4,6,8,10,-1,12,14,16,-1,18,20,22,24,26,28,30,32,34,36,38,40,-1,-1,-1,-1,-1,-1,-1,-1,-1,-1,-1,-1,-1,-1,-1,-1,-1,-1,-1],"split_conditions":[1.1678956E0,2.511698E-1,1E0,9.5E-1,1E0,-1.0282675E-1,2.9778528E1,6.78E0,1.1E1,-1.0044642E-1,1.6E1,8E0,2.25E0,7E-1,9.4E0,5.193826E-2,1.85E0,7.0861787E-1,1.3E0,8E0,6.666667E-2,5E-1,1.2958652E-1,5.1537592E-2,8.901656E-2,-2.8568277E-2,7.7490784E-2,6.8943E-3,7.6385595E-2,-1.013806E-1,4.096074E-2,5.5690408E-2,1.0497711E-2,1.3216085E-2,-1.16953254E-1,2.065718E-2,-3.806657E-2,1.6382948E-2,-6.830402E-2,1.9949649E-2,9.957863E-2],"split_indices":[0,0,2,1,2,0,0,5,3,0,3,3,5,7,5,0,1,0,1,8,1,1,0,0,0,0,0,0,0,0,0,0,0,0,0,0,0,0,0,0,0],"split_type":[0,0,0,0,0,0,0,0,0,0,0,0,0,0,0,0,0,0,0,0,0,0,0,0,0,0,0,0,0,0,0,0,0,0,0,0,0,0,0,0,0],"sum_hessian":[7.8817206E2,3.7127798E2,4.1689404E2,1.9128816E2,1.7998984E2,7.3286934E1,3.4360712E2,1.5315033E2,3.813783E1,3.9936557E0,1.7599617E2,3.307E2,1.2907104E1,1.4222252E2,1.0927806E1,2.8859467E1,9.278365E0,1.4761418E2,2.8382E1,1.4677202E2,1.83928E2,6.8176756E0,6.0894275E0,2.432163E1,1.17900894E2,5.230944E0,5.6968617E0,8.23828E0,2.0621185E1,5.450349E0,3.8280163E0,9.317095E1,5.4443222E1,2.4130257E1,4.251743E0,7.380196E1,7.2970055E1,1.6757217E1,1.6717078E2,3.56788E0,3.2497957E0],"tree_param":{"num_deleted":"0","num_feature":"13","num_nodes":"41","size_leaf_vector":"1"}},{"base_weights":[5.8508534E-3,5.595717E-1,-3.2709262E-1,6.4418095E-1,2.213444E-1,-1.025573E-1,-2.0385432E-1,7.377797E-1,4.2191574E-1,-2.854591E-2,9.85572E-2,-2.4193226E-1,1.0163375E-1,9.044161E-1,5.106844E-1,5.75287E-1,1.5558046E-1,1.7960857E-1,-2.851104E-1,-2.8015098E-1,9.564985E-1,9.4174854E-2,5.9629526E-2,2.8234843E-2,8.072803E-2,-1.1609612E-3,6.2604435E-2,-1.6413493E-2,3.9074194E-2,-3.182919E-2,6.1853748E-2,-1.125926E-1,-2.8917778E-3,-1.647073E-2,-8.350774E-2,5.308149E-2,1.2467935E-1],"categories":[],"categories_nodes":[],"categories_segments":[],"categories_sizes":[],"default_left":[0,1,0,0,0,0,1,0,1,0,0,0,0,0,0,0,1,0,0,0,0,0,0,0,0,0,0,0,0,0,0,0,0,0,0,0,0],"id":28,"left_children":[1,3,5,7,9,-1,11,13,15,17,-1,19,-1,21,23,25,27,29,31,33,35,-1,-1,-1,-1,-1,-1,-1,-1,-1,-1,-1,-1,-1,-1,-1,-1],"loss_changes":[1.3868489E2,7.9324493E0,4.021684E1,4.3664093E0,1.1127615E1,0E0,1.8850136E1,5.47451E0,2.7282972E0,2.4407127E0,0E0,1.809097E1,0E0,4.5111084E-1,4.4254417E0,1.3090534E0,2.071408E0,5.7253118E0,4.3589373E0,2.4069849E1,8.3406544E-1,0E0,0E0,0E0,0E0,0E0,0E0,0E0,0E0,0E0,0E0,0E0,0E0,0E0,0E0,0E0,0E0],"parents":[2147483647,0,0,1,1,2,2,3,3,4,4,6,6,7,7,8,8,9,9,11,11,13,13,14,14,15,15,16,16,17,17,18,18,19,19,20,20],"right_children":[2,4,6,8,10,-1,12,14,16,18,-1,20,-1,22,24,26,28,30,32,34,36,-1,-1,-1,-1,-1,-1,-1,-1,-1,-1,-1,-1,-1,-1,-1,-1],"split_conditions":[7.0861787E-1,1.0333333E0,1E0,3.3009678E-1,2E0,-1.025573E-1,2.0833333E0,3.98E0,2.5E-1,2.15285E-1,9.85572E-2,2.9778528E1,1.0163375E-1,6.8333334E-1,6.44E-1,3.6301127E-1,2.18E0,8.736997E-2,2.9787627E-1,1.905227E1,3.4334625E1,9.4174854E-2,5.9629526E-2,2.8234843E-2,8.072803E-2,-1.1609612E-3,6.2604435E-2,-1.6413493E-2,3.9074194E-2,-3.182919E-2,6.1853748E-2,-1.125926E-1,-2.8917778E-3,-1.647073E-2,-8.350774E-2,5.308149E-2,1.2467935E-1],"split_indices":[0,1,2,0,1,0,1,5,1,0,0,0,0,1,6,0,5,0,0,0,0,0,0,0,0,0,0,0,0,0,0,0,0,0,0,0,0],"split_type":[0,0,0,0,0,0,0,0,0,0,0,0,0,0,0,0,0,0,0,0,0,0,0,0,0,0,0,0,0,0,0,0,0,0,0,0,0],"sum_hessian":[7.502542E2,2.81477E2,4.6877722E2,2.2440645E2,5.707055E1,6.9195175E1,3.9958203E2,1.5624524E2,6.816122E1,4.372329E1,1.3347261E1,3.8827524E2,1.1306795E1,8.837297E1,6.787227E1,4.2493465E1,2.5667747E1,2.4283062E1,1.9440228E1,3.770262E2,1.1249022E1,7.695954E1,1.14134245E1,3.9470997E1,2.8401274E1,3.4281974E0,3.906527E1,1.0988189E1,1.4679559E1,1.1495342E1,1.2787719E1,3.7380848E0,1.5702142E1,3.1318738E2,6.383885E1,5.7217407E0,5.5272813E0],"tree_param":{"num_deleted":"0","num_feature":"13","num_nodes":"37","size_leaf_vector":"1"}},{"base_weights":[-1.1535009E-3,-9.959475E-1,9.8341726E-2,-1.01446114E-1,-4.5627996E-2,2.592645E-1,-9.0360336E-2,6.5974027E-1,1.9246022E-1,1.9407135E-1,-1.5531926E-1,1.0291634E-1,5.0345045E-1,1.301595E-1,5.643866E-1,-1.2624396E-1,4.2546156E-1,5.395847E-1,-2.2194935E-1,-1.9049782E-2,5.9092965E-2,2.7430309E-2,-2.2310918E-2,3.6424827E-2,7.418669E-2,2.0572647E-2,-7.863211E-2,7.051804E-2,2.21425E-3,1.03522256E-1,3.1532284E-2,-4.573512E-2,-1.454621E-2],"categories":[],"categories_nodes":[],"categories_segments":[],"categories_sizes":[],"default_left":[0,1,0,0,0,0,1,0,0,0,0,0,0,0,0,0,1,0,0,0,0,0,0,0,0,0,0,0,0,0,0,0,0],"id":29,"left_children":[1,3,5,-1,-1,7,9,11,13,15,17,-1,19,21,23,25,27,29,31,-1,-1,-1,-1,-1,-1,-1,-1,-1,-1,-1,-1,-1,-1],"loss_changes":[7.237618E1,1.8669891E-1,2.0208897E1,0E0,0E0,9.469799E0,5.695426E0,2.4050713E0,7.082636E0,4.3130965E0,1.1701995E1,0E0,2.4076872E0,1.3612112E1,1.2826977E0,5.610359E0,3.7664618E0,2.1244216E0,4.051469E0,0E0,0E0,0E0,0E0,0E0,0E0,0E0,0E0,0E0,0E0,0E0,0E0,0E0,0E0],"parents":[2147483647,0,0,1,1,2,2,5,5,6,6,7,7,8,8,9,9,10,10,12,12,13,13,14,14,15,15,16,16,17,17,18,18],"right_children":[2,4,6,-1,-1,8,10,12,14,16,18,-1,20,22,24,26,28,30,32,-1,-1,-1,-1,-1,-1,-1,-1,-1,-1,-1,-1,-1,-1],"split_conditions":[1E0,1.674E1,8E0,-1.01446114E-1,-4.5627996E-2,8.3E-1,1.9E-1,2.1E-1,3E-2,7E-1,8.5E-1,1.0291634E-1,1E0,5.85E0,7E-1,3E-2,1.1E-1,7.1E-1,5.5E-1,-1.9049782E-2,5.9092965E-2,2.7430309E-2,-2.2310918E-2,3.6424827E-2,7.418669E-2,2.0572647E-2,-7.863211E-2,7.051804E-2,2.21425E-3,1.03522256E-1,3.1532284E-2,-4.573512E-2,-1.454621E-2],"split_indices":[2,4,8,0,0,4,4,5,6,7,7,0,7,5,7,6,5,5,5,0,0,0,0,0,0,0,0,0,0,0,0,0,0],"split_type":[0,0,0,0,0,0,0,0,0,0,0,0,0,0,0,0,0,0,0,0,0,0,0,0,0,0,0,0,0,0,0,0,0],"sum_hessian":[7.2916034E2,6.548682E1,6.636735E2,6.244624E1,3.040578E0,3.5802948E2,3.0564404E2,4.9895054E1,3.0813443E2,5.6427372E1,2.4921666E2,1.3153977E1,3.6741077E1,2.6510413E2,4.3030277E1,2.3838602E1,3.258877E1,2.117092E1,2.2804575E2,3.968456E0,3.277262E1,1.8845927E2,7.664487E1,2.168525E1,2.1345028E1,1.6309366E1,7.5292363E0,1.8786383E1,1.3802388E1,5.454745E0,1.5716174E1,5.4672413E1,1.7337332E2],"tree_param":{"num_deleted":"0","num_feature":"13","num_nodes":"33","size_leaf_vector":"1"}},{"base_weights":[1.9877275E-2,-9.264427E-1,1.0927534E-1,-4.767502E-1,-9.881014E-2,7.428037E-2,1.0290264E-1,-7.001765E-2,-1.5858449E-4,3.51905E-1,-4.1224763E-2,5.517825E-1,1.416854E-1,-1.1832761E-1,4.450546E-1,6.9923095E-2,2.830652E-2,3.10013E-2,-5.4920435E-2,7.421199E-4,-4.0788393E-2,1.0463293E-2,7.1326755E-2],"categories":[],"categories_nodes":[],"categories_segments":[],"categories_sizes":[],"default_left":[0,0,1,0,0,0,0,0,0,0,0,0,1,0,0,0,0,0,0,0,0,0,0],"id":30,"left_children":[1,3,5,7,-1,9,-1,-1,-1,11,13,15,17,19,21,-1,-1,-1,-1,-1,-1,-1,-1],"loss_changes":[6.196022E1,1.2671394E0,2.1447968E1,1.0083618E0,0E0,2.072151E1,0E0,0E0,0E0,7.891039E0,1.7177082E1,3.6330757E0,1.1086821E1,1.4393392E1,5.6430492E0,0E0,0E0,0E0,0E0,0E0,0E0,0E0,0E0],"parents":[2147483647,0,0,1,1,2,2,3,3,5,5,9,9,10,10,11,11,12,12,13,13,14,14],"right_children":[2,4,6,8,-1,10,-1,-1,-1,12,14,16,18,20,22,-1,-1,-1,-1,-1,-1,-1,-1],"split_conditions":[1E0,4.1666666E-1,2.0833333E0,2.8333333E-1,-9.881014E-2,2.6666668E-1,1.0290264E-1,-7.001765E-2,-1.5858449E-4,8E0,6.44E-1,1.1E1,4.22E0,1.7E1,7E-1,6.9923095E-2,2.830652E-2,3.10013E-2,-5.4920435E-2,7.421199E-4,-4.0788393E-2,1.0463293E-2,7.1326755E-2],"split_indices":[2,1,1,1,0,1,0,0,0,8,6,3,5,3,7,0,0,0,0,0,0,0,0],"split_type":[0,0,0,0,0,0,0,0,0,0,0,0,0,0,0,0,0,0,0,0,0,0,0],"sum_hessian":[7.3029736E2,6.2217827E1,6.680796E2,8.574691E0,5.364314E1,6.446436E2,2.343596E1,5.4958863E0,3.0788038E0,1.8882632E2,4.5581726E2,9.593686E1,9.2889465E1,3.9410632E2,6.1710964E1,6.088771E1,3.5049145E1,7.51466E1,1.7742872E1,2.754315E2,1.1867482E2,2.78238E1,3.3887165E1],"tree_param":{"num_deleted":"0","num_feature":"13","num_nodes":"23","size_leaf_vector":"1"}},{"base_weights":[-2.7596582E-2,-8.557881E-1,5.086735E-2,-3.339351E-1,-9.692435E-2,1.5770808E-2,1.0189412E-1,-6.6990145E-2,5.007867E-3,9.523872E-2,-2.635647E-1,2.1449074E-1,-4.9546905E-2,-2.2243723E-1,-1.0664349E-1,-1.6745176E-2,3.1842288E-2,-1.606144E-2,1.8553028E-2,8.712967E-2,-2.6578898E-2],"categories":[],"categories_nodes":[],"categories_segments":[],"categories_sizes":[],"default_left":[0,0,1,0,0,1,0,0,0,0,0,0,0,0,0,0,0,0,0,0,0],"id":31,"left_children":[1,3,5,7,-1,9,-1,-1,-1,11,13,15,17,19,-1,-1,-1,-1,-1,-1,-1],"loss_changes":[4.582081E1,3.2761726E0,2.1864468E1,1.6445298E0,0E0,1.3848195E1,0E0,0E0,0E0,8.396894E0,4.3123665E0,1.0634381E1,5.7762737E0,6.5182495E0,0E0,0E0,0E0,0E0,0E0,0E0,0E0],"parents":[2147483647,0,0,1,1,2,2,3,3,5,5,9,9,10,10,11,11,12,12,13,13],"right_children":[2,4,6,8,-1,10,-1,-1,-1,12,14,16,18,20,-1,-1,-1,-1,-1,-1,-1],"split_conditions":[1E0,6.8333334E-1,2.0833333E0,3.5E-1,-9.692435E-2,7.3333335E-1,1.0189412E-1,-6.6990145E-2,5.007867E-3,8E0,1.59E1,7E-1,4.75E0,8.5E-1,-1.0664349E-1,-1.6745176E-2,3.1842288E-2,-1.606144E-2,1.8553028E-2,8.712967E-2,-2.6578898E-2],"split_indices":[2,1,1,1,0,1,0,0,0,8,5,7,5,7,0,0,0,0,0,0,0],"split_type":[0,0,0,0,0,0,0,0,0,0,0,0,0,0,0,0,0,0,0,0,0],"sum_hessian":[7.033244E2,6.0020897E1,6.433035E2,1.1438672E1,4.8582226E1,6.2178784E2,2.151567E1,5.7178245E0,5.7208476E0,4.8461502E2,1.3717284E2,2.6551358E2,2.1910143E2,1.3171516E2,5.457676E0,5.664399E1,2.088696E2,1.4904233E2,7.00591E1,4.2847567E0,1.27430405E2],"tree_param":{"num_deleted":"0","num_feature":"13","num_nodes":"21","size_leaf_vector":"1"}},{"base_weights":[-5.0518694E-3,4.8407066E-1,-3.3273202E-1,7.4138945E-1,3.579978E-1,-9.460544E-3,-4.8957795E-1,8.0503625E-1,1.0314318E-1,2.6816863E-1,7.37019E-1,2.6454267E-1,-3.0724275E-1,6.6778713E-1,-5.434007E-1,9.712664E-1,5.798871E-1,-5.88933E-2,7.56199E-2,2.1038745E-1,9.474209E-2,8.001755E-1,1.8620735E-2,7.077256E-1,1.0593297E-1,-6.3113235E-2,-8.8710093E-1,2.1286727E-1,1.505664E-1,-1.5901206E-1,-6.3977116E-1,5.0193578E-2,1.01065114E-1,7.738279E-2,2.3303306E-2,4.0707808E-2,-3.1641235E-3,6.657499E-2,1.0458493E-1,9.583841E-2,3.3367246E-2,-2.2560399E-2,4.913437E-2,6.6045105E-2,-3.1011766E-2,-1.0731123E-1,6.978489E-3,1.0443985E-1,-5.0106373E-2,-3.2081287E-2,8.692794E-2,-4.871736E-2,-9.176379E-2],"categories":[],"categories_nodes":[],"categories_segments":[],"categories_sizes":[],"default_left":[0,0,0,0,0,0,0,1,0,1,0,0,0,0,0,0,0,0,0,0,0,0,0,0,0,0,0,0,0,0,0,0,0,0,0,0,0,0,0,0,0,0,0,0,0,0,0,0,0,0,0,0,0],"id":32,"left_children":[1,3,5,7,9,11,13,15,17,19,21,23,25,27,29,31,33,-1,-1,35,-1,37,-1,39,41,43,45,47,-1,49,51,-1,-1,-1,-1,-1,-1,-1,-1,-1,-1,-1,-1,-1,-1,-1,-1,-1,-1,-1,-1,-1,-1],"loss_changes":[1.1029403E2,8.679375E0,2.0884995E1,3.5565758E0,6.1674404E0,1.11509495E1,1.7643364E1,2.4720535E0,4.652986E0,5.792577E0,1.0684967E0,4.919837E0,9.205454E0,4.52933E0,9.731285E0,3.165207E-1,2.3072119E0,0E0,0E0,6.789361E0,0E0,3.2137108E-1,0E0,1.4080105E0,6.9632792E0,8.632816E0,3.5227976E0,6.1375837E0,0E0,9.358358E0,8.530418E0,0E0,0E0,0E0,0E0,0E0,0E0,0E0,0E0,0E0,0E0,0E0,0E0,0E0,0E0,0E0,0E0,0E0,0E0,0E0,0E0,0E0,0E0],"parents":[2147483647,0,0,1,1,2,2,3,3,4,4,5,5,6,6,7,7,8,8,9,9,10,10,11,11,12,12,13,13,14,14,15,15,16,16,19,19,21,21,23,23,24,24,25,25,26,26,27,27,29,29,30,30],"right_children":[2,4,6,8,10,12,14,16,18,20,22,24,26,28,30,32,34,-1,-1,36,-1,38,-1,40,42,44,46,48,-1,50,52,-1,-1,-1,-1,-1,-1,-1,-1,-1,-1,-1,-1,-1,-1,-1,-1,-1,-1,-1,-1,-1,-1],"split_conditions":[8.0469364E-1,3.8333333E-1,6E0,6.7279416E-1,3E-2,8E0,1.5E-1,3.81E0,8.07E0,2.0833333E0,5.777034E-1,2.6466887E0,6E-1,1.1E-1,2.1666667E-1,2.1E-1,1.5E1,-5.88933E-2,7.56199E-2,1.0666667E0,9.474209E-2,8E0,1.8620735E-2,3.1E0,1.3440768E1,1.9299599E0,1.9666667E0,5.358317E0,1.505664E-1,1.8333334E-1,1.6930464E1,5.0193578E-2,1.01065114E-1,7.738279E-2,2.3303306E-2,4.0707808E-2,-3.1641235E-3,6.657499E-2,1.0458493E-1,9.583841E-2,3.3367246E-2,-2.2560399E-2,4.913437E-2,6.6045105E-2,-3.1011766E-2,-1.0731123E-1,6.978489E-3,1.0443985E-1,-5.0106373E-2,-3.2081287E-2,8.692794E-2,-4.871736E-2,-9.176379E-2],"split_indices":[0,1,3,0,6,8,4,4,4,1,0,0,1,4,1,4,3,0,0,1,0,8,0,4,0,0,1,0,0,1,0,0,0,0,0,0,0,0,0,0,0,0,0,0,0,0,0,0,0,0,0,0,0],"split_type":[0,0,0,0,0,0,0,0,0,0,0,0,0,0,0,0,0,0,0,0,0,0,0,0,0,0,0,0,0,0,0,0,0,0,0,0,0,0,0,0,0,0,0,0,0,0,0,0,0,0,0,0,0],"sum_hessian":[6.8615625E2,2.7506445E2,4.1109177E2,8.881999E1,1.8624446E2,1.3466367E2,2.764281E2,8.051404E1,8.30596E0,1.5196275E2,3.4281723E1,7.017262E1,6.449104E1,1.1768744E1,2.6465933E2,4.4385456E1,3.6128582E1,4.0727444E0,4.233216E0,1.4126996E2,1.069279E1,3.0332855E1,3.948866E0,1.7565756E1,5.2606865E1,4.6176216E1,1.831483E1,8.447967E0,3.3207784E0,5.3604237E1,2.1105511E2,4.5200715E0,3.9865383E1,2.2364067E1,1.3764513E1,7.758112E1,6.3688835E1,2.2029533E1,8.303323E0,9.566326E0,7.99943E0,2.8488909E1,2.4117958E1,1.1315308E1,3.486091E1,1.524107E1,3.0737612E0,3.6952038E0,4.7527623E0,4.6919266E1,6.68497E0,1.3803754E2,7.301756E1],"tree_param":{"num_deleted":"0","num_feature":"13","num_nodes":"53","size_leaf_vector":"1"}},{"base_weights":[-1.4610906E-2,3.7730324E-1,-4.6844995E-1,5.4753774E-1,1.5463956E-1,-1.0003187E-1,-3.8019282E-1,6.872973E-1,2.551214E-1,6.0765344E-1,4.1972216E-2,-4.373755E-1,8.59906E-1,8.9984787E-1,5.6209445E-1,1.5520558E-1,9.096026E-2,7.977441E-1,2.8730226E-1,-2.2291891E-2,8.901851E-1,1.3700914E-1,-5.172882E-1,4.675483E-1,1.2084534E-1,9.5293E-2,9.135577E-3,6.470287E-2,7.302063E-3,3.711086E-2,-1.2517164E-2,1.0424086E-1,-6.171243E-3,-5.5687763E-2,7.68705E-2,1.0931044E-2,-4.74121E-2,1.19406775E-1,3.3021245E-2,-4.7989544E-2,3.4951705E-2,-5.4408904E-2,8.5691035E-2,7.268158E-2,9.685083E-3],"categories":[],"categories_nodes":[],"categories_segments":[],"categories_sizes":[],"default_left":[0,0,0,1,0,0,0,0,0,1,1,0,0,0,1,0,0,1,0,1,0,0,1,0,0,0,0,0,0,0,0,0,0,0,0,0,0,0,0,0,0,0,0,0,0],"id":33,"left_children":[1,3,5,7,9,-1,11,13,15,17,19,21,23,25,27,29,-1,31,33,35,37,39,41,43,-1,-1,-1,-1,-1,-1,-1,-1,-1,-1,-1,-1,-1,-1,-1,-1,-1,-1,-1,-1,-1],"loss_changes":[1.1822899E2,1.3428833E1,1.4064468E1,8.059425E0,7.928552E0,0E0,1.9220818E1,3.0955658E0,4.219652E0,1.64604E0,6.8964686E0,1.1768368E1,1.0655699E0,1.9914665E0,3.6094208E0,3.6334152E0,0E0,4.039073E0,5.760679E0,7.07708E0,1.1064682E0,4.3471932E0,8.708172E0,6.2406397E-1,0E0,0E0,0E0,0E0,0E0,0E0,0E0,0E0,0E0,0E0,0E0,0E0,0E0,0E0,0E0,0E0,0E0,0E0,0E0,0E0,0E0],"parents":[2147483647,0,0,1,1,2,2,3,3,4,4,6,6,7,7,8,8,9,9,10,10,11,11,12,12,13,13,14,14,15,15,17,17,18,18,19,19,20,20,21,21,22,22,23,23],"right_children":[2,4,6,8,10,-1,12,14,16,18,20,22,24,26,28,30,-1,32,34,36,38,40,42,44,-1,-1,-1,-1,-1,-1,-1,-1,-1,-1,-1,-1,-1,-1,-1,-1,-1,-1,-1,-1,-1],"split_conditions":[2.0534832E0,4.711024E-1,1E0,6.8333334E-1,1.5E-1,-1.0003187E-1,2.9778528E1,2.79E0,2.0833333E0,1.71E0,1.9166666E0,2E0,3.13E0,3.6301127E-1,1.5E1,2.89E0,9.096026E-2,4.92E0,8.07E0,6.666667E-1,8E0,1E0,2.0833333E0,6E0,1.2084534E-1,9.5293E-2,9.135577E-3,6.470287E-2,7.302063E-3,3.711086E-2,-1.2517164E-2,1.0424086E-1,-6.171243E-3,-5.5687763E-2,7.68705E-2,1.0931044E-2,-4.74121E-2,1.19406775E-1,3.3021245E-2,-4.7989544E-2,3.4951705E-2,-5.4408904E-2,8.5691035E-2,7.268158E-2,9.685083E-3],"split_indices":[0,0,2,1,1,0,0,4,1,5,1,3,4,0,3,5,0,4,4,1,3,7,1,3,0,0,0,0,0,0,0,0,0,0,0,0,0,0,0,0,0,0,0,0,0],"split_type":[0,0,0,0,0,0,0,0,0,0,0,0,0,0,0,0,0,0,0,0,0,0,0,0,0,0,0,0,0,0,0,0,0,0,0,0,0,0,0,0,0,0,0,0,0],"sum_hessian":[6.627096E2,3.556948E2,3.0701477E2,2.0072743E2,1.5496736E2,4.220785E1,2.6480692E2,1.3487817E2,6.584926E1,2.9972313E1,1.2499505E2,2.5376102E2,1.1045901E1,4.7675274E1,8.72029E1,5.8214424E1,7.6348352E0,1.7855654E1,1.2116659E1,1.1708606E2,7.908993E0,3.08906E1,2.2287042E2,6.3113556E0,4.7345457E0,4.4558723E1,3.1165512E0,7.400716E1,1.3195749E1,3.2725998E1,2.5488426E1,1.3742341E1,4.1133137E0,4.335843E0,7.780816E0,9.124535E1,2.5840702E1,4.3812027E0,3.5277903E0,7.580196E0,2.3310406E1,2.192066E2,3.663811E0,3.1326902E0,3.1786652E0],"tree_param":{"num_deleted":"0","num_feature":"13","num_nodes":"45","size_leaf_vector":"1"}},{"base_weights":[-8.586352E-3,3.641852E-1,-4.091522E-1,5.963871E-1,1.8433483E-1,-9.6696526E-2,-6.105385E-1,7.384983E-1,3.4445065E-1,5.120671E-1,5.1515795E-2,7.550698E-1,-2.1224067E-1,-1.5375985E-1,-7.617476E-1,8.730886E-1,4.0841067E-1,-4.3898433E-1,5.121268E-1,7.544961E-1,6.9626145E-2,2.568981E-1,-2.4580774E-1,1.7046778E-1,-1.611926E-1,-2.8277785E-1,1.131928E-1,5.21672E-1,-5.352676E-1,-8.125289E-1,-1.5021204E-3,5.455318E-2,1.0195811E-1,-5.844457E-2,6.107406E-2,-8.6928785E-2,3.665838E-2,1.15925066E-1,3.6493745E-2,1.506446E-2,8.4230274E-2,-3.4103703E-2,1.14623E-1,1.8939218E-2,8.549731E-2,-1.3677408E-2,-1.24966435E-1,-9.120347E-2,8.308661E-2,-7.1908995E-3,-6.578517E-2,-2.2710025E-2,7.1314834E-2,-7.141654E-2,4.777582E-2,-9.232404E-2,-3.507189E-2,9.7868055E-2,-9.169439E-2],"categories":[],"categories_nodes":[],"categories_segments":[],"categories_sizes":[],"default_left":[0,0,0,0,0,0,0,0,0,0,1,0,0,0,1,0,1,0,0,0,0,1,0,0,0,0,0,0,0,0,0,0,0,0,0,0,0,0,0,0,0,0,0,0,0,0,0,0,0,0,0,0,0,0,0,0,0,0,0],"id":34,"left_children":[1,3,5,7,9,11,13,15,17,19,21,23,25,27,29,31,33,35,37,39,41,43,45,-1,47,49,-1,51,53,55,57,-1,-1,-1,-1,-1,-1,-1,-1,-1,-1,-1,-1,-1,-1,-1,-1,-1,-1,-1,-1,-1,-1,-1,-1,-1,-1,-1,-1],"loss_changes":[9.5873535E1,1.3770939E1,1.9408825E1,4.915024E0,8.189914E0,1.2211538E1,1.2858093E1,3.7003899E0,7.3296947E0,5.767639E0,8.340299E0,1.3204426E1,1.0614494E1,1.2654188E1,5.4328537E0,2.5074654E0,6.0690913E0,3.8115716E0,3.8496704E0,1.7183132E0,9.396587E0,3.084825E0,5.9302464E0,0E0,7.0618114E0,8.175147E0,0E0,2.7233286E0,5.9964666E0,6.418808E0,9.726804E0,0E0,0E0,0E0,0E0,0E0,0E0,0E0,0E0,0E0,0E0,0E0,0E0,0E0,0E0,0E0,0E0,0E0,0E0,0E0,0E0,0E0,0E0,0E0,0E0,0E0,0E0,0E0,0E0],"parents":[2147483647,0,0,1,1,2,2,3,3,4,4,5,5,6,6,7,7,8,8,9,9,10,10,11,11,12,12,13,13,14,14,15,15,16,16,17,17,18,18,19,19,20,20,21,21,22,22,24,24,25,25,27,27,28,28,29,29,30,30],"right_children":[2,4,6,8,10,12,14,16,18,20,22,24,26,28,30,32,34,36,38,40,42,44,46,-1,48,50,-1,52,54,56,58,-1,-1,-1,-1,-1,-1,-1,-1,-1,-1,-1,-1,-1,-1,-1,-1,-1,-1,-1,-1,-1,-1,-1,-1,-1,-1,-1,-1],"split_conditions":[1.6373761E0,2.37747E-1,4E-1,1.1E0,7E0,2.9E-1,5.9E-1,3.99E0,1.51E0,6.333333E-1,2.5E-1,8.119822E0,3.8333333E-1,5E0,7.04E0,7E0,4.72E0,1.03E-1,1.68E0,4.2E-1,1.9166666E0,1.339E1,2.847E1,1.7046778E-1,4.1E-1,2.1666667E-1,1.131928E-1,4E-1,4.7E-1,1.56E-1,7.6666665E-1,5.455318E-2,1.0195811E-1,-5.844457E-2,6.107406E-2,-8.6928785E-2,3.665838E-2,1.15925066E-1,3.6493745E-2,1.506446E-2,8.4230274E-2,-3.4103703E-2,1.14623E-1,1.8939218E-2,8.549731E-2,-1.3677408E-2,-1.24966435E-1,-9.120347E-2,8.308661E-2,-7.1908995E-3,-6.578517E-2,-2.2710025E-2,7.1314834E-2,-7.141654E-2,4.777582E-2,-9.232404E-2,-3.507189E-2,9.7868055E-2,-9.169439E-2],"split_indices":[0,0,1,1,3,4,5,4,4,1,1,0,1,3,5,3,4,0,5,5,1,4,4,0,5,1,0,4,5,6,1,0,0,0,0,0,0,0,0,0,0,0,0,0,0,0,0,0,0,0,0,0,0,0,0,0,0,0,0],"split_type":[0,0,0,0,0,0,0,0,0,0,0,0,0,0,0,0,0,0,0,0,0,0,0,0,0,0,0,0,0,0,0,0,0,0,0,0,0,0,0,0,0,0,0,0,0,0,0,0,0,0,0,0,0,0,0,0,0,0,0],"sum_hessian":[6.400686E2,3.3157068E2,3.0849792E2,1.4368706E2,1.878836E2,1.21506874E2,1.8699104E2,9.0606926E1,5.3080135E1,5.333884E1,1.3454477E2,1.3842382E1,1.0766449E2,4.7023514E1,1.3996753E2,6.3173264E1,2.743366E1,9.061995E0,4.401814E1,3.3987812E1,1.9351028E1,7.967632E1,5.4868446E1,6.380314E0,7.4620686E0,1.03053665E2,4.6108236E0,1.6831303E1,3.0192211E1,1.3112688E2,8.840659E0,2.1002945E1,4.217032E1,4.316093E0,2.3117567E1,5.863339E0,3.1986556E0,6.8700113E0,3.714813E1,4.6739955E0,2.9313816E1,1.4495688E1,4.85534E0,7.279337E1,6.8829455E0,5.052671E1,4.3417373E0,4.2990594E0,3.1630092E0,6.6746666E1,3.6307003E1,3.379077E0,1.3452227E1,2.591974E1,4.272471E0,1.0494675E2,2.6180126E1,4.230727E0,4.609932E0],"tree_param":{"num_deleted":"0","num_feature":"13","num_nodes":"59","size_leaf_vector":"1"}},{"base_weights":[1.7363477E-2,4.4116285E-1,-2.1660575E-1,6.3257545E-1,2.7870488E-1,-9.988449E-2,-1.3332048E-1,9.39802E-2,4.8674545E-1,5.098072E-1,8.141438E-2,-1.7008273E-1,8.926991E-1,-2.9367222E-2,5.378733E-1,-3.2608274E-2,5.6664133E-1,2.4631707E-1,-5.1430744E-1,-8.1280895E-2,-6.5994704E-1,5.2483894E-2,1.13352954E-1,2.714835E-2,7.759508E-2,6.784231E-2,2.4009796E-2,-2.8104817E-2,4.0113468E-2,3.93335E-2,-1.0167427E-1,2.6550144E-3,-5.5350322E-2,-3.0985994E-2,-1.1824143E-1],"categories":[],"categories_nodes":[],"categories_segments":[],"categories_sizes":[],"default_left":[0,1,0,0,0,0,0,0,0,1,1,0,0,0,0,0,0,0,0,1,0,0,0,0,0,0,0,0,0,0,0,0,0,0,0],"id":35,"left_children":[1,3,5,7,9,-1,11,-1,13,15,17,19,21,-1,23,-1,25,27,29,31,33,-1,-1,-1,-1,-1,-1,-1,-1,-1,-1,-1,-1,-1,-1],"loss_changes":[6.3762394E1,6.9272194E0,2.6849154E1,4.1963234E0,5.6763697E0,0E0,1.43130245E1,0E0,3.0632114E0,2.9236374E0,6.8960304E0,1.5751023E1,5.5294704E-1,0E0,4.1322517E0,0E0,1.8103466E0,4.578329E0,7.363372E0,1.5747479E1,9.792658E0,0E0,0E0,0E0,0E0,0E0,0E0,0E0,0E0,0E0,0E0,0E0,0E0,0E0,0E0],"parents":[2147483647,0,0,1,1,2,2,3,3,4,4,6,6,8,8,9,9,10,10,11,11,12,12,14,14,16,16,17,17,18,18,19,19,20,20],"right_children":[2,4,6,8,10,-1,12,-1,14,16,18,20,22,-1,24,-1,26,28,30,32,34,-1,-1,-1,-1,-1,-1,-1,-1,-1,-1,-1,-1,-1,-1],"split_conditions":[7.0861787E-1,3.3333334E-1,1E0,3.95E0,1.3669492E-1,-9.988449E-2,2.9778528E1,9.39802E-2,5.02E0,2.1E-1,1.5E1,1.9739769E1,3.4334625E1,-2.9367222E-2,1E0,-3.2608274E-2,1.25E0,2.15285E-1,2.11E0,7.3333335E-1,1.5E1,5.2483894E-2,1.13352954E-1,2.714835E-2,7.759508E-2,6.784231E-2,2.4009796E-2,-2.8104817E-2,4.0113468E-2,3.93335E-2,-1.0167427E-1,2.6550144E-3,-5.5350322E-2,-3.0985994E-2,-1.1824143E-1],"split_indices":[0,1,2,4,0,0,0,0,4,4,3,0,0,0,7,0,1,0,4,1,3,0,0,0,0,0,0,0,0,0,0,0,0,0,0],"split_type":[0,0,0,0,0,0,0,0,0,0,0,0,0,0,0,0,0,0,0,0,0,0,0,0,0,0,0,0,0,0,0,0,0,0,0],"sum_hessian":[6.410648E2,2.2772789E2,4.1333694E2,1.0319054E2,1.2453735E2,3.870407E1,3.7463287E2,3.1440453E1,7.1750084E1,5.6601128E1,6.7936226E1,3.624889E2,1.2143988E1,4.107876E0,6.7642204E1,3.2906294E0,5.3310497E1,5.3680225E1,1.4255999E1,3.0786578E2,5.4623093E1,6.079133E0,6.064855E0,3.2952866E1,3.468934E1,3.8889645E1,1.4420854E1,1.198273E1,4.1697495E1,5.149941E0,9.106057E0,2.513851E2,5.648069E1,3.3672523E1,2.0950571E1],"tree_param":{"num_deleted":"0","num_feature":"13","num_nodes":"35","size_leaf_vector":"1"}},{"base_weights":[6.598024E-3,2.8247067E-1,-3.574429E-1,4.9304232E-1,1.24237165E-1,-9.8794006E-2,-2.6698244E-1,6.3329333E-1,3.0767837E-1,-9.0154804E-2,1.5313293E-1,-3.3484766E-1,1.0353967E-1,9.5558815E-2,5.9382343E-1,-4.5740016E-2,3.557472E-1,2.7033982E-1,1.9043805E-2,-2.1798255E-1,-7.427806E-1,-1.2957622E-2,6.410017E-2,5.0643783E-2,8.67061E-3,1.1651932E-2,8.620319E-2,1.3811435E-2,-3.494098E-2,-1.08196236E-1,-1.5038939E-2,-1.5703825E-2,-1.0050211E-1],"categories":[],"categories_nodes":[],"categories_segments":[],"categories_sizes":[],"default_left":[0,0,0,0,0,0,0,0,0,0,0,0,0,0,0,0,0,0,0,0,0,0,0,0,0,0,0,0,0,0,0,0,0],"id":36,"left_children":[1,3,5,7,9,-1,11,13,15,-1,17,19,-1,-1,21,-1,23,25,27,29,31,-1,-1,-1,-1,-1,-1,-1,-1,-1,-1,-1,-1],"loss_changes":[6.2272167E1,1.1686163E1,1.496973E1,3.720913E0,6.1408825E0,0E0,2.112409E1,4.9801636E-1,2.626017E0,0E0,3.1050162E0,1.0520151E1,0E0,0E0,2.7629433E0,0E0,2.5295038E0,9.498886E0,4.1482615E0,1.0089365E1,7.4351616E0,0E0,0E0,0E0,0E0,0E0,0E0,0E0,0E0,0E0,0E0,0E0,0E0],"parents":[2147483647,0,0,1,1,2,2,3,3,4,4,6,6,7,7,8,8,10,10,11,11,14,14,16,16,17,17,18,18,19,19,20,20],"right_children":[2,4,6,8,10,-1,12,14,16,-1,18,20,-1,-1,22,-1,24,26,28,30,32,-1,-1,-1,-1,-1,-1,-1,-1,-1,-1,-1,-1],"split_conditions":[2.6466887E0,3.118997E-1,1E0,3.98E0,1E0,-9.8794006E-2,2.9778528E1,1.4E-1,4.49E0,-9.0154804E-2,3.65E0,1.9739769E1,1.0353967E-1,9.5558815E-2,2.3E-1,-4.5740016E-2,1.4400224E-1,2.35E0,1.2380329E0,3.3526843E0,5.9E-1,-1.2957622E-2,6.410017E-2,5.0643783E-2,8.67061E-3,1.1651932E-2,8.620319E-2,1.3811435E-2,-3.494098E-2,-1.08196236E-1,-1.5038939E-2,-1.5703825E-2,-1.0050211E-1],"split_indices":[0,0,2,5,2,0,0,5,5,0,5,0,0,0,5,0,0,5,0,0,5,0,0,0,0,0,0,0,0,0,0,0,0],"split_type":[0,0,0,0,0,